svm_type c_svc
kernel_type linear
nr_class 2
total_sv 251
rho -0.116117
label 1 -1
nr_sv 114 137
SV
0.01839277513863716 1:-1 2:-1 3:-0.2 4:-1 5:0.2 6:-0.666667 7:-0.555556 8:-0.666667 9:-0.333333 10:-0.6 11:-0.2 12:-0.666667 13:-0.142857 14:-0.666667 15:-1 16:-1 17:-0.428571 18:-1 19:-0.333333 20:-0.428571 21:-0.5 22:-1 23:-1 24:-0.666667 25:-0.8 26:-0.714286 27:-0.5 28:-1 29:-0.333333 30:-1 31:-0.428571 32:-1 33:-1 34:-0.714286 35:-0.666667 36:-0.777778 37:-0.333333 38:-1 39:-0.666667 40:-1 41:-0.428571 42:-0.5 43:-0.6 44:-1 45:-0.5 46:-0.666667 47:-1 48:-1 49:-0.777778 50:-0.428571 51:-0.666667 52:-1 53:-1 54:-0.714286 55:0.2 56:-1 57:-0.6 58:-0.714286 59:-0.777778 60:-1 61:-0.428571 62:-1 63:0.142857 64:-0.5 65:-1 66:-1 67:-0.75 68:-1 69:-1 70:-0.75 71:-0.428571 72:-0.714286 73:-0.6 74:-0.555556 75:-0.428571 76:-0.333333 77:-0.333333 78:-0.5 79:-0.714286 80:-1 81:-0.2 82:-0.666667 83:-0.5 84:-1 85:-0.428571 86:-0.714286 87:-1 88:-0.333333 89:-0.333333 91:-1 92:-0.75 94:-1 95:-0.714286 96:-0.818182 97:-0.666667 98:-1 99:-1 100:-1 101:-0.714286 102:-1 103:-1 104:-1 105:-0.428571 106:-0.2 107:-0.666667 108:0.2 109:-0.714286 110:-0.75 111:-0.8 112:-1 113:-1 115:-1 116:-0.428571 117:-1 118:-0.714286 119:-0.25 120:-0.666667 121:-0.5 122:-0.666667 123:-1 124:-1 125:-1 126:-1 127:-1 128:-1 129:-1 130:-0.333333 131:-1 132:-0.333333 133:-1 134:-1 135:-0.6 136:-0.666667 137:-1 138:-1 139:-0.8 140:-1 141:-0.714286 142:-0.714286 143:-0.777778 144:-1 145:-0.333333 146:-1 147:-1 148:-0.428571 149:-0.428571 150:-0.666667 151:-1 152:-0.666667 153:-1 155:-0.333333 156:-1 157:-0.2 158:-1 159:-0.428571 160:-0.666667 161:-0.666667 162:-0.666667 163:-0.666667 164:-1 165:-0.428571 166:-1 167:-0.666667 168:-1 169:-0.75 170:-0.6 171:-0.75 172:0.2 173:-1 174:-0.666667 175:-0.714286 176:-0.777778 177:-1 178:-1 179:-0.666667 180:-1 181:-0.333333 182:-0.777778 183:-0.333333 184:-0.75 186:-0.714286 187:-0.142857 188:-0.333333 189:-0.714286 190:-0.714286 191:-0.333333 192:-1 193:0.2 194:-0.6 195:-1 196:-0.666667 198:-1 199:-0.777778 200:-1 201:-0.666667 202:-0.666667 203:-0.2 205:-0.428571 206:-0.666667 207:-1 208:-0.666667 209:-0.25 210:-1 211:-0.428571 212:-0.666667 213:-0.2 214:-1 215:-0.75 216:-1 217:-0.555556 218:-1 219:-0.714286 220:-1 221:-1 222:-0.714286 223:-0.75 224:-0.714286 225:-1 226:-1 227:-1 228:-1 229:-0.333333 230:-0.777778 231:-0.6 232:-1 233:-0.555556 234:-0.75 235:-0.5 236:-0.25 237:-0.666667 238:-1 239:-1 240:-0.2 241:-0.714286 242:-0.714286 243:-0.666667 244:-1 245:-0.714286 246:-0.666667 247:-1 248:-1 249:-0.714286 250:-0.666667 251:-1 252:-0.5 253:-0.5 254:-1 255:-0.714286 256:-1 257:-0.636364 258:-0.666667 259:-1 260:-0.75 262:-0.142857 263:-0.666667 264:-0.333333 265:-1 266:-0.75 267:-1 268:-0.333333 269:-0.428571 270:-0.333333 271:-0.6 272:-1 273:-0.75 274:-1 275:-0.714286 276:-1 277:-0.333333 278:-0.428571 279:-0.8 280:-1 281:-0.333333 282:-0.714286 283:-0.6 284:-1 285:-0.428571 286:-0.5 287:-0.714286 288:-1 289:-0.6 290:-0.666667 291:-0.428571 292:-0.428571 293:-1 294:-1 295:-1 296:-0.666667 297:-1 298:-0.428571 299:-0.714286 300:-0.666667 301:-1 302:-0.714286 303:-0.666667 304:-0.714286 305:-0.6 306:-0.666667 307:-1 308:-1 309:-0.666667 310:-1 311:-0.833333 312:-0.714286 313:-0.5 314:-1 315:-0.6 316:-0.666667 317:-0.555556 318:-1 320:-1 321:-0.714286 322:-0.714286 324:-0.666667 325:-0.555556 326:-0.714286 327:-0.714286 328:-0.5 329:-1 330:-0.714286 331:-0.333333 332:-0.428571 333:-1 334:-1 335:-0.428571 336:-1 337:-0.714286 338:-0.75 339:-0.666667 340:-0.714286 341:-0.142857 342:-0.714286 343:-1 344:-1 345:-0.8 346:-1 347:-1 348:-0.8 349:-0.5 350:-0.5 351:-1 352:-0.6 353:-1 354:-0.333333 355:-0.428571 356:-0.714286 357:-1 358:-0.777778 359:-1 361:-0.555556 362:-0.666667 363:-1 364:-0.428571 365:-1 366:-0.428571 367:-1 368:-0.8 369:-1 370:-0.714286 371:-0.75 372:-1 373:-0.2 374:-0.142857 375:-1 376:-1 377:-0.2 378:-1 379:-0.333333 380:-0.75 381:-1 382:-1 383:-1 384:-0.8 385:-1 386:-1 387:-0.5 388:-1 389:-0.75 390:-0.666667 391:-0.6 392:-1 393:-0.2 394:-1 395:-1 396:-1 397:-0.818182 398:-0.8 399:-0.428571 400:-0.5 401:-0.6 402:-1 403:-0.666667 404:-1 405:-1 406:-0.666667 407:-0.5 408:-0.333333 409:0.142857 410:-1 411:-1 412:-1 413:-0.714286 414:-0.428571 415:-1 416:-1 417:-1 418:-0.5 419:-0.333333 420:-1 421:-0.666667 423:0.2 424:-1 425:-0.666667 426:-0.6 427:-0.75 428:-0.666667 429:-0.8 430:-1 431:-0.666667 432:-0.666667 433:-1 434:-1 435:-0.777778 436:-1 437:-1 438:-1 439:-0.428571 440:-0.428571 441:-1 442:-0.333333 443:-0.5 444:-1 445:-1 446:-0.857143 448:-0.714286 449:-1 450:0.25 451:-0.75 452:-0.75 453:-0.6 454:-0.777778 455:-0.75 456:-1 457:-1 458:-1 459:-0.75 460:-0.666667 461:-0.777778 463:-1 464:-1 465:-0.875 466:-1 467:-0.8 468:-0.75 469:-1 470:-0.75 471:-0.8 472:-0.75 473:-0.5 474:-0.428571 476:-0.666667 477:-0.8 478:-1 479:-1 480:-0.666667 481:-0.2 482:-1 483:-0.428571 484:-0.714286 485:-0.8 486:0.2 487:-1 488:-0.2 489:-1 490:-0.333333 491:-0.428571 492:-0.6 494:0.333333 495:-0.714286 496:-1 497:-1 498:-0.666667 499:-0.333333 500:-1 501:-0.666667 502:-0.714286 503:-0.6 504:-1 505:-1 506:-1 507:-1 508:-0.428571 509:-0.666667 510:-0.5 511:-1 512:-1 513:-0.714286 514:-1 515:-0.714286 516:-1 517:-0.666667 518:-0.714286 519:-0.5 520:-1 521:-1 522:-0.5 523:-1 524:-0.777778 525:-1 526:-1 527:-0.666667 528:-1 529:-1 530:-1 531:-0.5 532:-1 533:-0.5 534:-1 535:-0.5 536:-0.666667 537:-1 538:-0.714286 539:-1 540:-1 541:-1 542:-1 543:-0.555556 544:-1 545:-0.714286 547:-1 548:-0.333333 549:-1 550:-0.714286 551:-0.75 552:-1 553:-0.6 554:-1 555:-1 556:-0.777778 557:-0.666667 558:-0.428571 560:-0.333333 561:-1 562:-0.714286 563:-0.714286 564:-0.666667 565:-0.428571 566:-0.2 567:-0.666667 568:-0.555556 569:-0.75 570:-0.333333 571:-0.714286 572:-0.333333 573:-1 574:-1 575:-1 576:-1 577:-1 578:-0.666667 579:-0.8 580:-0.2 581:-0.2 583:-1 584:-0.818182 585:-1 586:-0.777778 587:-1 588:-1 589:-0.666667 590:-1 591:-0.333333 592:-0.25 593:-0.2 594:-1 595:-0.6 596:-0.666667 597:-0.6 598:-0.333333 599:-1 600:-0.6 601:-0.142857 602:-0.2 603:-0.6 604:-1 605:-0.6 606:-0.866667 607:-1 608:-1 609:0.2 610:-0.666667 611:-0.75 612:-1 613:-1 614:-0.666667 615:-0.714286 616:-0.2 617:-0.428571 618:-0.666667 619:-1 620:-1 621:-1 622:-1 623:-0.714286 624:-0.75 625:-0.2 626:-0.666667 627:-0.666667 628:-1 629:-0.666667 630:-1 631:-0.666667 632:-0.833333 633:-0.833333 634:-1 635:-0.5 636:-1 637:-0.25 639:-1 641:-0.555556 642:-0.428571 643:-0.75 645:-0.777778 646:-0.714286 647:-0.777778 648:-0.714286 649:-1 650:-0.714286 651:-1 652:-0.714286 653:-0.714286 654:-1 655:-1 656:-0.428571 657:-0.714286 658:-0.777778 659:-0.333333 660:-1 661:-0.6 662:-0.75 663:-0.875 664:-1 665:-0.666667 666:-1 667:-0.333333 668:-1 669:-1 670:-1 671:-1 672:-1 673:-1 674:-1 675:-0.333333 676:-1 677:-0.714286 678:-1 679:-0.6 680:-1 681:-1 682:-1 683:-0.6 684:-0.714286 685:-1 686:-1 687:-0.5 688:-0.5 689:-1 690:-0.714286 691:-0.5 692:-0.714286 693:-1 694:-1 695:-0.2 698:-0.333333 699:-1 700:-0.25 701:-0.714286 702:-0.714286 703:-0.846154 704:-1 705:-1 706:-1 707:-0.142857 708:-1 709:-1 710:-0.666667 711:-1 714:-0.666667 715:-1 716:-1 717:-1 718:-0.714286 719:-1 720:-0.428571 721:-1 722:-1 723:-1 724:-1 725:-0.714286 726:-1 727:-0.6 728:-1 730:0.333333 731:-0.25 732:-1 733:-1 734:-0.6 735:-1 736:-0.333333 737:-0.2 738:-1 739:-0.666667 740:-1 742:-0.5 743:-1 744:-0.25 745:-0.666667 746:-1 747:-1 748:-0.714286 749:-0.75 750:-1 751:-0.666667 752:-0.666667 753:-1 754:-0.777778 755:-0.866667 756:-1 757:-0.142857 758:-1 759:-1 760:-0.333333 761:-0.714286 762:-1 763:-0.714286 764:-1 765:-1 766:-1 767:-1 768:-0.714286 769:0.142857 770:-0.8 771:-0.5 772:-1 773:-0.666667 774:-1 775:-1 776:-1 777:-1 778:-0.666667 779:-1 780:-0.714286 781:-1 782:-1 783:-0.666667 784:-1 785:-1 786:-1 787:-1 788:-0.714286 789:-1 790:-1 791:-0.666667 792:-0.666667 793:-0.714286 794:-0.75 795:-1 796:-0.692308 797:-0.6 798:-0.714286 799:-1 800:-0.8 801:-0.333333 802:-1 803:-0.6 804:-1 805:-1 807:-1 808:-1 809:-1 810:-0.2 811:-1 812:-1 813:-1 814:-0.714286 815:0.2 817:-0.428571 818:-0.75 819:-1 820:-1 821:-1 822:-0.818182 823:-0.142857 824:-1 825:-1 826:-1 827:-1 828:-1 829:-1 830:-0.5 831:-0.666667 832:-1 833:-0.777778 834:-1 835:-0.714286 836:-0.8 837:-1 838:-1 839:-0.714286 840:-1 841:-0.555556 842:-1 843:-1 844:-0.714286 845:-1 846:-0.818182 847:-0.714286 848:-0.666667 849:-1 850:-1 851:-0.428571 852:-1 853:-0.5 854:-1 855:-0.333333 856:-1 857:-1 858:-0.666667 859:-0.777778 860:-0.8 861:-1 862:-1 863:-0.818182 864:-0.75 865:-1 866:-1 867:-1 868:-0.714286 869:-0.75 870:-0.666667 871:-0.5 872:-0.75 873:-1 874:-1 875:-1 876:-1 877:-1 878:-1 879:-0.714286 880:-1 881:-0.818182 882:-0.6 883:-0.6 884:-1 885:-0.666667 886:-0.777778 887:-0.714286 888:-1 889:-1 890:-0.5 891:-1 892:-0.714286 893:-1 894:-1 895:-0.5 896:-1 897:-1 898:-1 899:-1 900:-0.777778 901:-0.777778 902:-0.75 903:-0.4 904:-0.666667 905:-0.333333 906:-1 907:-0.6 908:-0.5 909:-1 910:-0.5 911:-0.846154 912:-1 913:-0.428571 914:-0.4 915:-1 916:-1 917:-0.714286 918:-1 920:-1 921:-1 922:-1 923:-1 925:-1 926:-1 927:-1 928:-1 929:-1 930:-1 931:-1 932:-1 933:-0.666667 934:-1 935:-0.333333 936:-0.714286 938:-1 939:-1 940:-0.8 941:-1 942:-1 943:-1 944:-1 945:-0.428571 946:-1 947:-1 948:-1 949:-0.75 950:-0.714286 951:-1 952:-1 953:-1 954:-0.714286 955:-1 956:-0.428571 957:-0.818182 958:-1 959:-1 960:-0.333333 961:0.333333 962:-1 963:-0.6 964:-1 965:-0.666667 966:-1 967:-1 968:-1 969:-1 970:-0.25 971:-1 972:-0.75 973:-1 974:-0.857143 975:-1 976:-0.555556 977:-0.666667 978:-0.428571 979:-0.8 981:-0.833333 982:-0.666667 983:-1 984:-1 985:-1 986:-1 987:-0.6 988:-1 989:-0.666667 990:-0.692308 991:-1 992:-1 993:-0.666667 994:-0.555556 995:-0.5 996:-0.777778 997:-1 998:-1 999:-1 1000:-1 1001:-0.8 1002:-1 1003:-0.5 1004:-0.8 1005:-1 1006:-0.6 1007:-1 1008:-1 1009:-0.714286 1010:-0.25 1011:-0.6 1012:-0.846154 1013:-1 1014:-0.2 1015:-0.5 1016:-0.666667 1017:-0.333333 1018:-0.428571 1019:-1 1020:-0.714286 1022:-0.777778 1023:-1 1024:-0.714286 1025:-1 1026:-0.846154 1027:-0.714286 1028:-0.75 1029:-0.714286 1030:-1 1031:-1 1032:-1 1033:-0.2 1034:-0.5 1035:-0.428571 1036:-0.714286 1037:-1 1038:-0.5 1039:-0.333333 1040:-0.666667 1041:-0.666667 1042:-0.6 1043:-1 1044:-1 1045:-0.75 1046:-1 1047:-0.666667 1048:-1 1049:-0.5 1050:-1 1051:-0.8 1052:-1 1053:-0.6 1054:-0.75 1055:-0.714286 1056:-1 1057:-0.8 1058:-1 1059:0.2 1060:-1 1061:-1 1062:-0.833333 1064:-0.666667 1065:-0.111111 1066:-1 1067:-0.714286 1068:-1 1069:-0.5 1070:-1 1071:-0.428571 1072:-0.333333 1073:-0.142857 1074:-0.8 1075:-1 1076:-0.6 1077:-0.6 1078:-0.846154 1079:-0.142857 1080:-0.666667 1081:-0.714286 1082:-1 1083:-0.333333 1084:-0.333333 1085:-0.636364 1086:-0.5 1087:-0.714286 1088:-0.818182 1089:-0.714286 1090:-1 1091:-1 1092:-0.6 1093:-0.714286 1094:-1 1095:-0.666667 1096:-0.6 1097:-1 1098:-0.428571 1099:-0.333333 1100:-0.714286 1101:-1 1102:-0.714286 1103:-0.5 1104:-1 1105:0.2 1106:-0.714286 1107:-0.6 1108:-0.818182 1109:-0.6 1110:-0.666667 1111:-0.777778 1112:-1 1113:-0.333333 1114:-1 1115:-0.555556 1116:-0.5 1117:-1 1118:-0.428571 1119:-1 1120:-1 1121:-0.75 1122:-1 1123:-0.5 1124:-1 1125:-1 1126:-0.666667 1127:-0.692308 1128:-1 1129:-0.833333 1130:-0.636364 1131:-0.75 1132:-1 1133:-0.714286 1134:-0.666667 1135:-1 1137:-0.714286 1138:-0.666667 1139:-0.777778 1140:-0.714286 1141:-1 1142:-1 1143:-1 1144:-1 1145:-1 1146:-0.8 1147:-0.25 1148:-0.5 1149:-0.75 1150:-1 1151:-1 1152:-0.5 1153:-1 1155:-0.833333 1156:-1 1158:-0.666667 1159:-0.833333 1160:-1 1161:-1 1162:-1 1163:-0.75 1164:-1 1165:-0.2 1166:-0.5 1167:-0.2 1168:-1 1169:-1 1170:-0.666667 1171:-1 1172:-1 1173:-0.833333 1174:-0.777778 1175:-1 1176:-1 1177:-0.714286 1178:-1 1179:-1 1180:-1 1181:-1 1182:-1 1183:-0.5 1184:-0.333333 1185:-0.875 1186:-0.666667 1187:-0.333333 1188:-1 1189:-0.666667 1190:-0.75 1191:-0.692308 1193:-0.714286 1194:-0.777778 1195:-1 1196:-0.5 1197:-0.714286 1198:-1 1199:-0.2 1200:-1 1201:-0.8 1202:-0.666667 1203:-1 1204:-0.333333 1205:-1 1206:-0.714286 1207:-0.6 1208:-1 1209:-0.75 1210:-1 1211:-0.555556 1212:-0.6 1213:-0.333333 1214:-0.5 1215:-0.6 1216:-1 1217:-0.666667 1218:-0.777778 1219:-0.555556 1220:-0.142857 1221:-1 1222:-0.142857 1223:-0.666667 1224:-0.5 1225:-1 1226:-1 1227:-0.25 1228:-0.777778 1229:-1 1230:-1 1231:-1 1233:-0.6 1234:-0.666667 1235:-1 1236:-1 1237:-1 1238:-1 1239:-0.714286 1240:-0.8 1241:-1 1242:-0.2 1243:-1 1244:-0.5 1245:-0.8 1246:-0.5 1247:-0.555556 1248:-1 1249:-1 1250:-0.666667 1251:-0.428571 1252:-1 1254:-0.75 1255:-0.8 1256:-0.75 1257:-0.714286 1258:-0.75 1259:0.142857 1260:-0.714286 1261:-0.5 1262:-1 1263:-0.714286 1264:-1 1266:-1 1267:-0.428571 1268:-1 1269:-0.714286 1270:-0.714286 1271:-1 1272:-0.666667 1273:-0.5 1274:-1 1275:-0.714286 1276:-1 1277:-0.666667 1278:-0.6 1279:-0.5 1280:-0.5 1281:-0.5 1282:-1 1283:-0.333333 1284:-1 1285:-0.714286 1287:-1 1288:-0.636364 1289:-1 1290:-0.75 1292:-0.333333 1293:-0.5 1294:-1 1295:-0.777778 1296:-0.777778 1297:-1 1298:-1 1299:-0.5 1300:-0.5 
0.03130286142779542 1:-1 2:-0.666667 3:-0.6 5:-1 6:-0.666667 7:-0.555556 8:-1 9:-0.666667 10:-0.6 11:-0.6 12:-0.333333 13:-1 14:-0.666667 15:-0.777778 16:-1 17:-0.428571 18:-1 19:-0.666667 20:-0.428571 22:-1 23:-0.777778 25:-0.6 26:-1 27:-0.25 28:-1 29:-0.666667 30:-0.75 31:-0.714286 32:-0.714286 33:-0.333333 34:-0.428571 35:-1 36:-0.777778 37:-0.666667 38:-0.75 39:-0.333333 40:-0.714286 41:-0.142857 42:-1 43:0.2 44:-0.714286 45:-1 48:-1 49:-0.777778 50:-1 52:-1 53:-0.2 54:-0.714286 55:-0.6 56:-1 57:-1 58:-0.714286 59:-0.777778 60:-0.666667 61:-1 62:-0.666667 63:-0.428571 65:-0.2 66:-0.636364 67:-0.5 68:-0.6 69:-0.428571 70:-0.5 71:-0.428571 72:0.142857 73:0.2 74:-0.555556 75:-1 76:-0.666667 77:-0.333333 78:-0.75 79:-0.714286 80:-0.142857 81:-0.6 82:-1 83:-0.25 84:-0.333333 85:-0.714286 86:-0.714286 87:-0.777778 88:-1 89:-1 90:-1 91:-1 93:-1 94:-0.714286 95:-1 96:-1 97:0.333333 98:-1 99:-0.4 100:-0.142857 101:-0.714286 102:-1 103:-1 104:-1 105:-1 106:-1 108:-1 109:-0.428571 110:-0.75 111:-1 112:-0.142857 113:-0.75 115:-0.666667 116:0.142857 117:-0.428571 118:-0.428571 119:-0.75 120:-0.333333 123:0.2 124:-0.333333 125:-1 126:-0.75 127:0.2 129:-1 130:-0.333333 131:-0.333333 132:-0.333333 133:0.2 134:-0.666667 135:-0.2 136:-1 137:-0.25 138:-1 139:-0.8 140:-1 141:-0.714286 142:-0.714286 143:-0.777778 144:-1 145:-1 146:-1 147:-0.714286 148:-0.428571 149:-0.428571 150:0.333333 151:-0.714286 152:-1 153:-0.666667 154:-1 155:-1 156:-1 157:-0.6 158:-0.2 159:-1 160:-0.333333 162:-0.333333 163:-0.666667 164:-0.714286 165:-0.714286 166:-1 168:-0.4 169:-0.75 170:-1 172:-0.2 174:-1 175:-0.714286 176:-0.555556 177:-0.333333 178:-1 180:-1 181:-1 182:-0.111111 183:-0.666667 184:-0.5 185:-1 186:0.142857 187:-1 188:-1 189:-0.714286 190:-0.714286 191:-1 192:-0.142857 193:-0.2 195:-0.75 196:-0.666667 197:-1 198:-0.6 199:-0.333333 200:-1 201:-1 202:-1 203:-0.2 204:-1 205:-0.142857 207:-1 208:0.333333 209:-0.5 210:-0.75 211:-0.428571 212:-1 213:-1 214:-1 215:-1 216:-0.428571 217:-0.111111 218:-1 219:-1 220:-0.428571 221:-1 222:-0.428571 224:-1 225:-0.25 226:-0.333333 227:-0.5 229:-0.777778 230:-0.777778 231:0.2 232:-0.428571 233:-0.777778 234:-1 235:-0.5 236:-1 238:-1 239:-0.666667 240:-0.6 241:-0.714286 242:-0.714286 243:-0.666667 244:-1 245:-0.714286 249:-0.428571 250:-0.333333 251:-0.333333 252:-0.5 254:-0.777778 255:-0.428571 256:-0.75 257:-1 258:-0.666667 262:0.142857 263:-1 264:-0.333333 265:-0.666667 266:-0.5 267:-1 268:-1 269:-0.714286 270:-0.333333 271:-0.2 272:-0.2 273:-0.75 274:-1 275:-0.428571 276:-0.2 277:-0.666667 278:-0.714286 279:-0.6 280:-0.5 281:-0.666667 282:-0.142857 283:-0.2 284:-0.428571 285:-1 286:-0.75 287:-0.142857 288:-1 289:-0.6 290:-0.333333 291:-1 292:0.142857 293:-0.6 294:-1 295:-1 296:-0.666667 297:-0.714286 298:-0.714286 299:-0.714286 300:-0.666667 301:-0.714286 302:-0.714286 303:-0.666667 304:-0.428571 305:-1 306:-0.666667 307:-1 308:-0.5 309:-1 310:-0.714286 311:-0.5 312:-0.428571 313:-1 314:-0.777778 315:-0.2 316:-0.333333 317:-1 318:-0.25 319:-0.666667 320:-0.555556 321:-0.714286 322:-0.142857 324:-1 325:-0.777778 326:-0.142857 327:-0.428571 328:-1 329:-0.6 330:-0.714286 331:-0.333333 332:-0.428571 333:-1 334:-0.714286 335:-0.714286 337:-0.428571 338:-1 340:0.142857 341:-1 342:-1 343:-1 344:-0.714286 345:-0.8 346:-1 347:-1 348:-0.6 349:-0.75 351:-1 352:-0.2 353:0.142857 354:-0.666667 355:-0.428571 356:-1 357:-1 358:-0.555556 359:-0.714286 360:-0.666667 361:-1 362:-0.333333 363:-0.8 364:0.428571 365:-0.75 366:-0.714286 367:-1 368:-0.6 370:0.428571 371:-0.5 372:0.142857 373:1 374:-0.428571 375:-0.818182 376:-0.5 377:0.2 378:-1 379:-0.333333 380:-1 381:-0.777778 382:-0.714286 383:-0.428571 384:-0.8 385:-0.666667 386:-1 387:-1 388:-0.428571 389:-1 390:-1 391:-0.2 392:-1 393:-0.6 394:0.6 395:-0.6 396:-0.333333 397:-0.636364 398:-0.8 399:-0.428571 400:-0.75 401:-1 402:-1 403:-1 404:-1 405:-1 406:-0.333333 407:-0.75 408:-0.666667 409:-1 410:-1 411:-1 412:-1 413:-0.714286 414:-1 415:-0.5 417:-1 418:-1 419:-0.333333 420:-1 421:-0.333333 422:-0.666667 423:-0.6 424:-0.571429 425:-0.666667 426:-0.2 428:-0.666667 429:-0.8 430:-0.2 431:-0.333333 432:-0.666667 433:-0.714286 434:-0.75 435:-0.555556 436:-0.692308 437:-1 438:-1 439:-0.428571 440:-0.428571 441:-0.428571 442:-0.333333 443:-0.5 444:-1 445:-0.333333 446:-0.857143 448:0.142857 449:-0.714286 450:-0.5 451:-0.75 452:-1 453:-0.6 454:-1 455:-1 456:-0.5 457:-0.428571 458:-0.555556 459:-0.75 460:-0.666667 461:-1 462:-1 463:-0.333333 464:-0.818182 465:-0.375 466:-0.6 467:-0.8 468:-1 469:-0.428571 470:-0.25 471:-0.6 472:-0.25 473:-0.75 474:-0.428571 475:-1 477:-0.8 478:-0.333333 479:-0.818182 480:-0.333333 481:0.2 482:-0.666667 483:1 484:-0.142857 485:-0.8 486:0.6 487:-0.6 488:-1 489:-0.75 490:-0.666667 491:-1 492:-1 495:-1 496:-0.5 497:-0.142857 498:-0.333333 499:-0.666667 500:-1 501:-0.333333 502:-0.714286 503:-0.6 504:-0.6 505:-0.5 506:-0.733333 507:-0.428571 508:-0.428571 509:-0.333333 510:-1 511:-1 512:-0.714286 513:-0.428571 514:-0.428571 515:-0.142857 516:-0.555556 517:-0.333333 518:-1 519:-1 521:-0.6 522:-0.75 523:-1 524:-0.555556 525:-0.666667 526:-1 528:0.333333 529:-0.428571 530:-1 531:-1 532:-0.6 533:0.5 534:-1 535:-0.75 536:-0.333333 537:-0.428571 538:-0.714286 539:-1 540:-0.75 541:-0.75 542:-0.75 543:-0.111111 544:-0.2 545:-0.285714 546:-0.75 547:0.2 548:-1 549:-0.5 550:-0.714286 551:-1 552:-0.5 553:-0.6 554:0.142857 555:-1 556:-0.111111 557:-0.333333 558:-0.714286 559:-0.5 560:-0.666667 561:-0.777778 562:-0.714286 563:-0.142857 564:-0.666667 565:-1 566:-0.6 567:-0.333333 568:-0.777778 569:-0.5 570:-0.777778 571:-1 572:-0.666667 573:-0.8 574:-0.5 575:-0.5 576:-0.333333 577:-0.454545 578:-0.333333 579:-0.6 580:-0.6 581:-1 582:-0.666667 583:-0.75 584:-0.818182 585:-0.777778 586:0.111111 587:-1 590:-0.714286 591:-0.666667 592:-0.75 593:-0.2 594:-0.5 595:-0.6 596:0.333333 597:-0.6 598:-1 599:-1 600:-1 601:-0.428571 602:-0.6 603:-0.6 604:-1 605:-0.2 606:-0.733333 607:0.142857 608:-0.666667 609:-1 610:-1 611:-0.5 612:-0.8 613:-1 614:-0.333333 615:-0.714286 616:0.2 617:-0.142857 618:-0.333333 619:-0.777778 621:-1 622:0.666667 623:-0.714286 624:-0.75 625:0.2 627:-0.666667 628:-1 629:-0.333333 630:-1 632:-0.333333 633:-0.833333 634:-1 635:-1 636:-1 637:-1 638:-1 640:-0.333333 641:-0.777778 642:-1 643:0.25 644:-0.333333 645:-0.777778 646:-0.714286 647:-1 648:-0.714286 649:-1 650:-0.428571 651:-0.555556 652:-0.714286 653:-0.142857 654:-0.833333 655:-1 656:-0.714286 657:-0.142857 658:-0.777778 659:-0.777778 660:-0.6 661:-0.2 662:-1 663:-0.75 664:-1 665:-0.333333 666:-0.5 667:-0.333333 668:-0.666667 669:-1 670:-1 671:-0.714286 672:-1 673:-0.6 674:-0.333333 675:-1 676:-0.5 677:-0.428571 678:-0.714286 679:-0.2 681:-1 682:-1 683:-0.6 684:-0.428571 685:-0.666667 686:-0.428571 687:-0.5 688:-0.5 690:-1 691:-1 692:-1 693:-0.6 694:-1 695:-0.6 696:-0.666667 697:-1 698:-1 699:-0.2 700:-0.75 701:-0.428571 702:-0.428571 703:-0.692308 704:-0.333333 705:-0.714286 706:-0.428571 707:-0.142857 708:-0.6 709:-0.428571 710:-0.666667 711:-0.666667 712:-1 713:-1 714:-1 715:-0.6 716:-0.5 718:-0.714286 719:-0.6 720:-1 721:-0.428571 722:-0.333333 723:-0.5 724:-1 725:-0.714286 726:-0.428571 727:-1 728:-1 729:-1 730:-1 731:-0.75 732:-0.636364 733:-0.75 734:-1 735:-0.333333 736:-0.777778 737:0.2 738:-1 739:-1 740:-1 741:-0.333333 743:-0.75 744:-0.25 745:-0.666667 746:-0.666667 748:-0.714286 749:-0.75 750:-1 751:-0.666667 752:-1 753:-1 754:-1 755:-1 756:-1 757:-0.428571 758:-0.714286 759:-0.142857 761:-1 762:0.333333 763:-1 765:-0.75 766:-0.333333 767:0.5 768:-0.714286 769:-0.428571 770:-0.6 771:-1 772:-0.428571 773:-0.333333 774:-0.6 775:-0.333333 776:-0.428571 777:-1 778:-1 779:-0.714286 780:-0.714286 781:-0.714286 782:-0.6 783:-0.333333 784:-0.75 785:-0.428571 786:-0.428571 787:-1 788:-0.714286 789:-0.75 790:-0.5 791:-1 792:-0.666667 793:-0.142857 794:-0.75 795:-0.5 796:-1 797:-1 798:-0.714286 799:-1 800:-1 801:-1 802:-1 803:-0.2 804:-0.2 805:-0.75 806:0.333333 807:-1 808:-0.5 809:-0.5 810:0.2 811:-0.666667 812:-0.714286 813:-1 814:-0.428571 815:-0.6 816:-0.75 817:-0.142857 818:0.25 819:-1 820:-0.2 821:-0.333333 822:-0.818182 823:-0.714286 824:-1 825:-0.6 826:-0.8 827:-0.777778 828:-0.75 829:-0.333333 830:-0.75 831:-0.666667 832:-0.75 833:-0.777778 834:-0.8 835:-0.714286 836:-0.6 837:-1 838:-0.5 839:-0.714286 840:-1 841:-1 842:-0.75 843:-0.142857 844:-0.714286 846:-0.454545 847:-0.142857 848:-0.333333 849:0.5 850:-1 851:-0.428571 852:-0.5 853:-0.5 854:-1 855:-0.333333 856:-0.6 857:-0.777778 858:-0.333333 859:-0.555556 860:-1 861:-0.6 862:-0.2 863:-1 864:-1 865:-0.333333 866:-0.8 867:-0.75 868:-0.714286 869:-0.75 870:-0.333333 871:-0.5 872:-0.75 873:-1 875:-0.8 878:-0.75 879:-0.714286 880:-0.5 881:-0.272727 882:-1 884:-1 886:-1 887:-1 888:-0.333333 889:-0.714286 890:-0.25 891:-1 892:-0.428571 893:-1 894:-1 895:-0.5 896:-0.692308 897:-0.666667 898:-0.666667 899:-0.666667 900:-1 901:-0.777778 902:-1 903:-0.8 904:-0.666667 905:-0.333333 906:-0.636364 907:-0.6 908:-0.5 909:-0.333333 910:-1 911:-0.384615 912:-0.2 913:-0.428571 914:-0.8 915:-0.555556 916:0.333333 917:-1 918:-0.5 919:-1 920:-0.5 921:-0.5 923:-0.333333 925:-0.666667 926:-1 927:-1 928:-0.428571 929:-1 930:-1 931:-1 932:-0.666667 933:-0.666667 934:-0.8 935:-0.666667 936:-0.714286 937:0.5 938:-1 939:-1 940:-1 941:-0.5 942:-0.333333 943:-0.428571 944:-1 945:-0.714286 946:-1 947:-0.6 948:-0.846154 949:-0.25 950:-0.714286 951:-0.333333 952:-0.714286 953:-1 954:-0.714286 955:-1 956:-1 957:-0.818182 958:-1 959:-0.714286 960:-0.333333 961:-1 962:-1 963:0.2 964:-0.428571 967:-0.692308 968:-1 969:-0.142857 970:-0.5 971:-1 972:-0.25 973:-1 974:-0.571429 975:-0.2 976:-0.777778 977:-0.666667 978:-0.714286 979:-0.8 980:-0.333333 981:-1 982:-0.333333 983:0.333333 984:-1 985:-0.818182 986:-0.75 987:-0.6 988:-0.5 989:-0.333333 990:-0.846154 991:-1 992:-1 993:0.333333 994:-0.555556 995:-1 996:-0.777778 997:-0.428571 998:-1 999:-0.2 1000:-0.6 1001:-0.2 1002:-0.333333 1003:-1 1004:-0.8 1005:-0.75 1006:-1 1007:-1 1008:-1 1009:-0.428571 1010:-0.5 1011:-0.6 1012:-1 1013:0.333333 1014:0.2 1015:-0.75 1016:-0.666667 1017:-1 1018:-0.714286 1019:-1 1020:-0.714286 1021:-1 1022:-1 1023:-0.333333 1024:-0.428571 1025:-0.666667 1026:-0.692308 1027:0.428571 1028:-1 1029:-1 1030:-0.5 1031:-0.8 1032:0.2 1033:-1 1034:-0.5 1035:-0.714286 1036:-0.714286 1037:-1 1039:0.333333 1040:-0.333333 1041:-0.666667 1042:-0.6 1043:-0.777778 1044:-0.75 1045:-0.75 1046:-0.2 1047:-0.666667 1048:0.333333 1049:-1 1050:-0.833333 1051:-0.8 1052:-1 1053:0.2 1054:-1 1055:-0.714286 1056:-0.428571 1057:-0.6 1058:-0.6 1059:-0.6 1060:-0.666667 1061:-1 1062:-0.5 1063:-0.666667 1065:-0.777778 1066:-1 1067:-0.142857 1068:0.2 1069:-0.75 1070:-0.714286 1071:-0.714286 1072:-0.555556 1073:-0.714286 1074:-0.8 1075:-1 1076:-0.2 1077:-0.6 1078:-0.384615 1079:-0.714286 1080:-0.666667 1081:-0.428571 1083:-1 1084:-0.666667 1085:-1 1086:-1 1087:-0.714286 1088:-1 1089:-0.714286 1090:-1 1091:-0.666667 1092:-0.6 1093:-1 1094:-0.555556 1095:-1 1096:-1 1097:-1 1098:-0.142857 1099:-0.666667 1100:0.142857 1101:-0.666667 1102:0.428571 1103:-1 1104:0.333333 1105:-0.6 1106:-1 1107:-0.6 1108:-0.818182 1109:-1 1110:-0.666667 1111:-0.777778 1112:-0.2 1113:-0.666667 1114:-0.714286 1115:-0.777778 1116:-0.75 1117:-1 1118:-0.714286 1119:-0.777778 1120:-0.75 1121:-0.75 1122:-0.5 1123:-1 1124:-0.666667 1125:-0.75 1126:-0.666667 1127:-0.384615 1128:-0.25 1129:-0.333333 1130:-0.818182 1131:-0.75 1132:-0.818182 1133:0.142857 1135:-1 1136:-0.666667 1137:-0.428571 1138:-0.833333 1139:-1 1140:-0.428571 1141:-0.833333 1142:0.333333 1143:-1 1144:-0.714286 1145:-1 1146:-0.6 1147:-0.25 1148:-1 1149:-0.75 1150:-0.6 1151:-0.428571 1152:-0.75 1153:-1 1155:-1 1156:-1 1157:0.5 1158:-1 1159:-1 1161:-0.666667 1162:-1 1163:-0.5 1164:-0.5 1165:-1 1166:-0.5 1167:-1 1168:-1 1170:-0.333333 1172:-0.5 1173:-1 1174:-0.555556 1175:-0.142857 1176:-1 1177:-0.142857 1178:-0.777778 1179:-1 1180:-0.714286 1181:-1 1182:-0.8 1183:-0.5 1185:-0.75 1186:-1 1187:-0.666667 1188:-0.666667 1189:-0.666667 1190:-0.25 1191:-0.384615 1192:-0.666667 1193:-1 1194:-1 1195:-0.5 1196:-1 1197:-1 1198:-1 1199:-0.2 1200:-0.25 1201:-1 1202:-0.333333 1203:-1 1204:-0.555556 1205:-1 1206:-1 1207:-0.6 1208:-1 1209:-0.75 1210:-0.5 1211:-0.777778 1212:-0.6 1213:-0.666667 1214:-1 1215:-1 1216:-1 1217:-0.333333 1218:-0.777778 1219:-1 1220:-0.714286 1221:-0.428571 1222:-0.714286 1225:-0.375 1226:-1 1227:-0.75 1228:-0.777778 1229:-1 1230:-1 1231:-1 1232:-0.333333 1233:-1 1234:-0.666667 1235:-1 1236:-0.142857 1237:-0.142857 1238:0.333333 1239:-0.428571 1240:-0.2 1241:-1 1242:-1 1243:-0.2 1245:-0.8 1246:-0.75 1247:-0.555556 1248:-0.428571 1249:-0.75 1250:-0.333333 1251:-0.428571 1252:-0.666667 1253:-1 1255:-0.8 1256:-0.75 1257:-1 1258:-0.25 1259:0.428571 1260:-0.428571 1262:-1 1263:-0.428571 1264:-0.538462 1265:-1 1266:-1 1267:-0.714286 1268:-1 1269:-0.142857 1270:-0.142857 1271:-0.454545 1272:-0.333333 1273:-1 1274:-0.714286 1275:-0.142857 1276:-0.666667 1278:-0.6 1279:-1 1280:-1 1281:-1 1282:-0.25 1283:-1 1284:-1 1285:-0.714286 1286:-0.75 1287:-0.666667 1288:-1 1289:-0.5 1290:-0.75 1291:-0.666667 1292:-0.666667 1293:-1 1294:-0.857143 1295:-0.777778 1296:-1 1297:-0.333333 1298:-0.6 1299:-1 1300:-1 
0.001216959640203732 1:-0.714286 2:-1 3:-1 4:-1 5:-1 6:-1 7:-1 8:-0.333333 9:-1 10:-1 11:-0.6 12:-1 13:-0.714286 14:-1 15:0.333333 16:-1 17:-1 18:-1 19:-1 20:-0.714286 21:-0.5 22:-1 23:-0.777778 24:-1 25:-0.6 26:-0.714286 27:-1 28:-1 29:-1 30:1 31:-0.714286 32:-0.714286 33:0.111111 34:-0.428571 35:-1 36:-0.555556 37:-1 38:-1 39:-1 40:-0.714286 41:-0.428571 42:-1 43:-1 44:-1 45:-0.25 46:-1 47:-0.5 48:-0.333333 49:0.333333 50:-1 51:-0.333333 52:-1 53:-0.6 54:-0.428571 55:-0.6 56:-0.8 57:-0.6 58:-1 59:-1 60:-1 61:-0.714286 62:-0.666667 63:-1 64:-0.5 65:-0.6 66:-0.636364 67:-1 68:-0.6 69:-0.714286 70:-1 71:-1 72:-0.142857 73:-1 74:-0.777778 75:-1 76:-1 77:-1 78:-1 79:-0.714286 80:-0.142857 81:-0.2 82:-1 83:-0.5 84:0.777778 85:0.142857 86:-0.142857 87:-0.555556 89:-1 90:-1 91:-1 92:0.75 93:-1 94:-1 95:-0.714286 96:-1 97:-1 98:-0.666667 99:1 100:-1 101:0.142857 102:-0.25 103:1 104:-0.75 105:-1 106:-0.6 107:-1 108:-1 109:-0.142857 110:-1 111:-0.4 112:-1 113:-0.75 115:-1 116:-0.714286 117:0.428571 118:-0.428571 119:-0.75 120:-1 121:-1 122:-1 123:-1 124:-0.666667 125:-1 126:0.75 127:-1 128:-1 129:-0.333333 130:-1 131:-1 132:-1 133:-1 134:-0.666667 135:-0.6 136:-0.666667 137:0.5 138:-1 139:-0.8 140:-0.272727 141:0.428571 142:-0.714286 143:-0.555556 144:-1 145:-1 146:-1 147:-1 148:-0.428571 149:-1 150:-1 151:-0.428571 152:-1 153:-0.666667 154:-1 156:-1 157:-0.2 158:-0.6 159:-1 160:-1 161:-0.666667 162:-0.666667 163:-0.666667 164:-1 165:-1 167:-0.333333 168:0.2 169:-1 170:-1 171:-1 172:-1 173:-0.666667 174:-1 175:-1 176:-1 177:0.333333 179:-1 180:-0.777778 181:-1 182:-0.777778 183:-1 184:-1 185:-0.666667 186:-1 187:-1 188:-1 189:-0.428571 190:-1 191:1 192:-1 193:-1 194:-0.6 195:-1 196:-0.333333 197:-1 198:-0.6 199:-0.777778 200:-0.6 201:-1 203:-0.6 204:-1 205:-0.428571 206:-0.333333 207:-0.5 208:-1 209:-1 210:-0.75 211:-0.142857 212:-1 213:-0.6 214:-0.777778 215:-0.75 216:0.428571 217:-0.333333 218:-0.2 219:0.714286 220:-0.142857 222:-1 223:-1 224:-0.714286 225:0.75 226:0.777778 227:-0.75 228:-1 229:-1 230:-1 231:-1 232:-0.142857 233:-0.555556 234:-0.5 236:0.75 237:-0.333333 238:-1 239:-0.333333 240:-0.2 241:-1 242:-0.714286 243:-0.666667 244:-1 245:-0.142857 246:-0.333333 247:-0.666667 248:-0.333333 249:-0.428571 250:-0.666667 251:-0.333333 253:-0.5 254:-0.555556 255:-1 256:-0.5 257:-1 258:-0.666667 259:-0.666667 260:-0.75 261:-1 262:0.142857 264:-1 265:-0.666667 266:-0.75 267:-0.6 268:-1 269:-1 270:-0.333333 271:-1 272:-0.6 273:-1 275:-0.714286 276:-0.6 277:-0.333333 278:-1 279:-1 281:-1 282:-0.714286 283:-0.6 284:-0.714286 285:-1 286:-0.75 287:-0.714286 288:-0.142857 289:-0.6 290:-0.333333 291:-1 292:0.142857 293:-0.6 294:-0.428571 295:-1 296:-1 297:-1 298:-1 299:-1 300:0.333333 301:-0.714286 302:-1 303:-0.666667 304:-1 305:-0.2 306:-0.666667 307:-0.5 308:-0.5 309:-1 310:-0.142857 311:-0.833333 312:-1 314:-1 315:-1 316:-1 317:-1 318:-0.25 319:-1 320:-0.555556 321:-0.428571 322:-1 324:-0.333333 325:-0.555556 326:-1 327:-1 328:0.5 329:-0.2 330:-1 331:-1 332:-0.428571 333:0.333333 334:-0.714286 335:0.142857 336:-0.666667 337:0.428571 338:-1 339:-1 340:-1 341:-1 342:-0.714286 343:-0.4 344:-0.714286 345:-0.8 347:-0.4 348:0.6 349:-0.75 350:-0.25 351:-0.2 352:-1 353:-0.714286 354:-1 355:-0.142857 356:-1 358:-0.777778 359:-1 360:-1 361:-1 362:-0.666667 363:-1 364:-0.428571 365:-0.5 366:-1 367:0.333333 368:-0.4 369:-0.333333 370:-0.428571 371:-0.75 372:-0.714286 373:-0.6 374:-0.428571 375:-1 376:-0.5 377:-0.6 378:-0.666667 379:-0.666667 380:-1 381:-0.111111 382:-0.714286 383:-0.714286 384:-0.8 385:-1 386:-1 387:-0.5 388:-1 389:-1 390:-0.666667 391:-1 392:-1 393:-0.2 394:-1 395:-0.2 396:-0.666667 397:-0.636364 398:-0.8 399:-0.142857 400:-0.75 401:-0.6 402:-1 403:-0.666667 404:-0.666667 405:-1 406:-0.666667 407:-1 408:-0.666667 409:-1 410:-0.5 411:0.111111 413:-0.714286 414:-1 416:-0.666667 417:-0.142857 418:-0.5 419:-1 420:-1 421:-1 422:-1 423:-1 424:-0.857143 425:-0.666667 426:-1 427:-0.75 428:-1 429:-1 430:-0.6 431:-1 432:-1 433:-0.428571 434:-1 435:-0.777778 436:-1 437:0.5 439:-0.142857 440:-0.142857 441:-1 442:-1 443:-0.5 444:-1 446:-0.857143 447:-1 448:-0.142857 449:-1 450:-0.25 451:-1 452:-0.5 453:-1 454:-0.777778 455:-0.25 456:-1 457:-0.714286 458:1 459:-1 460:-1 461:0.555556 463:-1 464:-0.454545 465:-0.75 466:-0.6 467:-0.6 468:-1 469:-0.714286 470:-1 471:-0.8 472:-0.25 473:-0.5 474:-0.142857 475:-1 476:-0.666667 477:-0.6 478:0.333333 479:-1 480:-0.333333 481:0.2 482:-0.666667 483:-1 484:-0.714286 485:-0.6 486:0.2 487:-0.6 488:-0.6 489:-1 490:-0.666667 491:-1 492:-0.6 493:-1 494:-1 495:-1 496:0.5 497:-0.142857 499:-0.666667 500:-0.666667 501:-0.666667 502:-1 503:-0.6 504:-0.6 505:-0.5 506:0.0666667 507:-0.142857 508:-1 509:-0.666667 510:-1 511:-0.8 512:-1 513:-1 514:-0.714286 515:-1 516:-0.555556 517:-1 518:-0.142857 520:-0.5 521:-0.6 522:-0.75 523:-0.142857 524:-0.777778 527:-0.666667 529:-1 530:-0.714286 531:-1 532:-1 533:-0.5 534:0.5 535:-0.75 536:-1 537:-0.142857 538:-0.428571 539:-0.636364 540:-0.75 541:-0.75 542:-1 543:-0.777778 544:-0.6 545:-0.714286 546:-0.5 547:-1 548:-0.777778 550:-1 551:-1 552:-0.75 553:-1 554:-0.428571 555:0.333333 556:-0.777778 557:-0.666667 558:-1 559:-0.75 560:-0.666667 561:-0.555556 562:-1 563:-1 564:-1 565:-0.714286 566:-0.8 567:-0.333333 568:-0.777778 569:-0.75 570:-0.777778 571:-1 572:-0.666667 573:-1 574:-1 576:-0.666667 577:0.272727 578:-0.333333 579:-0.8 580:-1 581:-0.6 582:-1 583:-0.5 584:-0.454545 585:-0.555556 586:-0.777778 587:-0.333333 588:-0.666667 589:-0.333333 590:-0.714286 591:-1 592:-0.75 593:-0.6 595:-0.2 597:-1 598:-1 599:-0.4 600:0.2 601:-1 602:-1 603:-0.6 604:-0.25 605:-1 606:-1 607:-0.714286 608:-0.666667 609:-0.6 610:-1 611:-0.75 612:-0.6 613:-0.6 614:-1 615:-0.714286 616:0.2 617:-1 618:-0.666667 619:-0.777778 620:-0.666667 621:-0.5 622:0.333333 623:-0.428571 625:-0.6 626:-1 627:-0.333333 628:-1 629:-0.666667 630:-1 631:-1 632:-0.333333 633:-0.5 634:-0.5 635:-0.5 636:0.5 637:-1 638:-0.333333 639:-0.666667 640:-0.333333 641:-1 642:-1 643:-1 644:-0.333333 645:0.333333 646:-1 647:0.777778 648:-0.714286 649:-0.4 650:-0.714286 651:-0.777778 652:-0.714286 653:-1 654:-1 655:-1 656:-0.714286 657:-0.714286 658:-1 659:-0.777778 660:0.2 661:-0.6 662:-1 663:-1 664:-1 665:-1 667:-0.666667 668:-0.333333 669:-1 671:-0.142857 673:-1 674:-0.666667 675:-0.666667 676:-0.75 677:-0.714286 678:-1 679:-0.2 680:-0.5 681:-1 683:-0.6 684:-0.142857 685:-0.333333 686:-0.714286 687:-1 688:-1 689:-0.5 690:-1 691:-1 692:-1 693:0.2 694:-1 695:-0.6 696:-0.666667 697:-1 698:-0.666667 699:-0.6 700:-1 701:-1 702:-0.142857 703:-1 704:0.333333 705:-1 706:-0.428571 707:-1 708:-0.866667 709:-0.428571 710:-1 711:-0.666667 712:-0.666667 713:-0.5 714:-1 715:-0.4 716:-0.5 717:-0.5 718:-0.142857 719:-1 720:-1 721:-1 722:-0.333333 723:-0.25 724:0.333333 725:-1 726:-0.142857 727:-1 729:-0.75 730:-0.666667 731:-0.25 732:0.272727 733:-1 734:-0.6 735:-0.666667 736:-1 737:-1 738:-0.75 739:-0.666667 740:-0.666667 741:-1 742:-0.5 743:-0.25 744:-1 745:-1 746:-0.333333 747:-0.5 748:-1 749:-1 750:0.5 751:-0.666667 752:-0.333333 753:-1 754:-1 755:-0.6 756:0.2 757:-1 758:-1 759:-0.428571 760:-0.666667 761:-0.714286 762:-0.333333 763:-0.714286 765:-0.75 766:0.333333 767:-0.25 768:-1 769:-0.714286 770:-0.8 771:-0.5 772:-0.714286 773:-0.666667 774:-0.6 775:-1 776:-1 777:-0.454545 778:-1 779:-0.428571 780:-1 781:-1 782:-0.2 783:-1 784:-1 785:-1 786:-1 787:-0.333333 788:-0.714286 789:-1 790:-0.25 791:-1 792:-0.666667 793:-0.714286 794:-0.75 795:-0.833333 796:-1 797:0.2 798:-0.428571 799:-0.8 800:-0.6 801:-1 802:-1 803:-0.6 804:-0.6 805:-1 809:-1 810:-0.2 811:-0.666667 812:-0.714286 813:0.5 814:-0.142857 815:-1 816:-1 817:-0.142857 818:-0.75 819:-0.818182 820:-0.6 821:-0.333333 822:-0.272727 823:-1 824:-0.5 825:-0.6 826:-0.6 827:-1 828:-1 829:-1 830:-1 831:-0.666667 832:-0.75 833:-1 834:-0.8 835:-1 836:-0.4 837:-0.5 838:0.5 839:-1 841:-0.777778 842:-0.25 843:-0.714286 844:-1 845:-1 846:-0.636364 847:-1 848:-0.666667 849:-0.5 850:-0.4 851:-0.142857 853:-0.5 854:-0.714286 855:-1 856:-0.2 857:-0.777778 858:-1 859:-0.111111 860:-0.4 861:-0.6 862:-0.6 863:-0.454545 864:0.25 865:1 866:-0.6 867:-0.25 868:0.428571 869:-1 870:-1 871:-0.5 872:-1 873:-1 874:-1 875:-0.6 877:-0.666667 878:-1 879:-0.428571 881:-0.454545 882:-1 883:-1 884:-1 885:-0.666667 886:-1 887:-1 888:-0.333333 889:-1 890:-1 891:-1 892:-1 893:-0.428571 894:-0.666667 895:-0.5 896:-1 898:-0.666667 899:-0.333333 900:-0.555556 901:-1 902:-1 903:-1 904:0.333333 905:-0.666667 906:-1 907:-0.8 908:0.5 909:-0.333333 910:-1 911:-0.230769 912:-0.6 913:-1 914:-1 915:-0.111111 916:-1 917:-0.428571 918:-0.5 921:-0.5 923:-0.333333 925:0.333333 927:-0.333333 928:-0.428571 929:-1 930:-0.6 931:0.2 932:-1 934:-0.2 935:-1 936:-1 937:-0.5 938:-0.666667 939:-0.454545 940:-0.6 942:-0.333333 943:-1 944:-1 945:-1 946:-0.666667 947:-0.6 948:-0.538462 949:-0.75 950:-0.142857 951:0.333333 952:-1 953:-0.4 954:-0.428571 955:-0.5 956:-1 957:-0.272727 958:0.2 959:-0.428571 960:-0.333333 961:-0.666667 962:-0.333333 963:-0.6 964:-0.714286 965:-0.666667 967:-0.538462 969:-1 970:-1 971:-0.714286 972:-0.25 973:-0.333333 974:-0.571429 975:-0.6 976:-0.777778 977:0.333333 978:-1 979:-0.6 980:-0.666667 981:-0.333333 983:-1 984:-0.555556 985:-0.818182 986:-0.75 987:-0.6 988:-1 989:-1 990:-0.846154 991:-0.666667 992:-0.6 993:-1 994:-0.777778 995:-0.5 996:-1 997:-0.142857 999:-1 1000:-0.2 1001:-0.4 1002:-1 1003:0.5 1004:-0.8 1005:-0.25 1006:-0.6 1007:-0.636364 1008:-0.777778 1009:-1 1010:-1 1011:-0.6 1012:-0.846154 1013:-0.666667 1014:-0.6 1015:-0.75 1016:-0.666667 1017:-0.666667 1018:-1 1019:-1 1020:-0.714286 1021:-0.666667 1022:-0.555556 1023:-1 1024:-0.714286 1026:-0.692308 1027:-0.714286 1029:-1 1030:-0.5 1031:-0.6 1032:-0.2 1033:-0.6 1034:-0.5 1035:-0.714286 1036:-1 1037:-0.666667 1038:-0.5 1039:-0.333333 1040:-0.666667 1041:-1 1042:-0.6 1043:-1 1044:-1 1045:-0.75 1046:-1 1047:-1 1048:-1 1049:-0.5 1050:-0.166667 1051:-0.6 1052:-0.5 1053:-0.6 1054:-1 1055:-0.714286 1056:-0.428571 1057:-0.2 1058:-1 1059:-1 1062:-0.833333 1063:-1 1064:-0.666667 1065:-0.777778 1066:-1 1067:-0.142857 1068:-0.6 1069:0.5 1070:-1 1071:-1 1072:-1 1073:-1 1074:-0.6 1075:-0.5 1076:-0.6 1077:-0.6 1078:-0.230769 1079:-0.714286 1080:-1 1081:-1 1082:-0.333333 1083:-1 1084:-0.666667 1085:-0.454545 1086:-0.25 1087:-0.714286 1088:-0.0909091 1089:-0.428571 1090:-0.8 1091:-0.666667 1092:-0.6 1093:-0.714286 1094:-0.555556 1095:-1 1096:-0.6 1097:-0.555556 1098:-0.428571 1099:-1 1100:-1 1101:-1 1102:-0.142857 1104:-0.333333 1105:-0.6 1106:-1 1107:-0.6 1108:-0.0909091 1109:-1 1110:-0.666667 1111:-1 1112:-0.6 1113:-0.666667 1114:-1 1115:-0.777778 1116:-1 1117:-1 1118:-0.714286 1119:-0.111111 1120:-0.25 1122:-0.666667 1123:-0.5 1124:-0.333333 1125:-0.75 1126:-0.333333 1127:-0.384615 1128:-0.75 1129:-0.333333 1130:-0.272727 1131:-0.75 1132:-0.272727 1133:-1 1135:-0.5 1136:-1 1137:-1 1138:-0.833333 1139:-1 1140:-1 1141:-0.833333 1142:-1 1143:-0.5 1144:-0.714286 1146:-1 1147:-0.25 1148:0.5 1149:-1 1150:-0.6 1151:-0.428571 1152:-1 1153:-0.454545 1154:-1 1155:-0.333333 1156:-1 1157:-1 1160:-0.333333 1161:-0.333333 1162:-0.571429 1163:-0.5 1165:-0.6 1167:-0.6 1169:-0.5 1171:-1 1172:-0.833333 1173:-0.5 1174:-1 1175:-1 1176:-0.5 1177:-1 1178:-0.333333 1179:-0.777778 1181:-0.777778 1182:-0.6 1183:-0.5 1184:0.333333 1185:-0.625 1186:-0.333333 1187:-0.333333 1188:-1 1189:-0.333333 1190:-0.75 1191:-0.846154 1192:-1 1193:-0.714286 1194:-0.333333 1195:-0.5 1196:-0.5 1197:-1 1198:-0.6 1199:-0.2 1200:-1 1201:-1 1204:-1 1205:-0.692308 1206:0.142857 1207:-0.6 1208:-0.571429 1209:-0.25 1211:-1 1212:-0.6 1213:-1 1214:-0.5 1215:-0.4 1216:-1 1217:-0.666667 1218:-1 1219:-1 1220:-1 1221:-1 1222:-1 1225:-0.75 1226:-0.4 1227:-1 1228:-1 1229:-1 1230:-1 1231:-1 1232:-1 1233:-0.8 1234:-0.333333 1235:-1 1236:-0.714286 1237:-1 1238:-0.666667 1239:-0.714286 1240:-0.2 1242:-0.6 1243:-0.6 1244:-0.5 1245:-0.6 1246:-0.75 1247:-0.777778 1248:-1 1249:-0.75 1250:-0.666667 1251:-1 1252:-0.666667 1253:-1 1254:-1 1256:0.75 1257:-1 1258:0.25 1259:0.142857 1260:-1 1261:-0.25 1263:-1 1264:-1 1266:-0.777778 1267:-0.428571 1269:-1 1270:-0.714286 1271:-0.454545 1272:-0.666667 1273:-0.5 1274:-0.428571 1275:-1 1276:0.333333 1277:-0.666667 1278:-0.2 1279:-0.5 1280:-0.25 1281:-0.5 1282:-0.5 1283:0.333333 1284:-0.5 1285:-0.714286 1286:-0.75 1288:-0.272727 1289:-0.333333 1290:-1 1294:-0.428571 1295:-0.333333 1296:-0.777778 1297:-1 1298:-0.2 1299:-0.5 1300:-1 
0.01016664712559206 1:0.142857 2:-1 3:0.2 4:-0.666667 5:-0.6 6:0.333333 7:-0.555556 8:-0.666667 10:0.6 11:-1 12:-0.333333 13:-0.428571 14:-0.333333 15:-0.777778 16:-0.666667 17:-0.714286 18:-0.5 19:-0.333333 20:-0.714286 22:-1 23:-0.777778 24:-0.333333 25:-0.8 26:0.142857 27:-1 28:-0.75 29:-0.333333 30:0.25 31:-0.428571 32:-1 33:-0.777778 34:-0.714286 35:-0.666667 36:-0.555556 37:-0.333333 38:-0.25 39:0.333333 40:-0.428571 41:-0.428571 42:-0.5 43:-0.6 44:-0.714286 45:-0.75 47:-1 48:0.333333 49:-0.777778 50:-0.714286 51:-0.333333 52:-1 53:-1 54:-0.428571 55:-1 56:-1 57:0.2 58:-0.428571 59:-1 60:-0.666667 61:-0.428571 62:-0.666667 63:-1 65:-1 66:-0.818182 67:-0.75 68:-0.2 69:-1 70:-0.5 71:-0.714286 72:0.428571 73:0.2 74:-1 75:-0.714286 76:-0.666667 77:-0.333333 78:-0.25 79:0.142857 80:-1 81:-1 82:-0.333333 83:-0.5 84:-0.555556 85:-0.428571 86:-0.142857 87:-1 88:-0.666667 89:-0.666667 90:-0.666667 91:-0.5 92:-0.5 93:-0.666667 94:-1 95:-0.428571 96:-0.818182 97:-0.333333 98:-1 99:-0.8 100:-0.428571 101:-0.714286 102:-1 103:-0.6 104:-0.5 105:-0.142857 106:-0.2 107:-0.333333 108:-0.2 109:-0.714286 111:-1 112:-0.428571 113:-0.75 116:-0.142857 117:-1 118:-0.142857 119:-1 120:-1 121:-0.5 122:-1 123:-1 124:-0.666667 125:-0.5 126:-0.5 127:-0.6 128:-0.333333 129:-0.666667 130:-0.333333 131:-0.333333 132:-1 133:-0.6 134:-0.666667 135:-0.2 136:-0.666667 137:-0.75 138:-0.714286 139:-0.8 140:-0.818182 141:-0.428571 142:-0.714286 143:-0.777778 145:-0.333333 146:-0.714286 147:-1 148:-0.428571 149:-0.428571 150:0.333333 151:-0.142857 152:-0.666667 153:-0.333333 154:-0.333333 155:-1 156:-0.75 157:-0.6 158:-1 159:-0.714286 160:-0.666667 161:-0.666667 162:-0.666667 163:-0.333333 164:-0.714286 165:-0.714286 166:-1 168:-1 169:-0.5 170:-0.2 171:-0.5 172:-0.6 173:-0.666667 174:-1 175:-0.142857 176:-0.333333 177:-0.333333 178:-0.333333 179:-1 180:-1 181:-0.333333 182:-1 183:-0.666667 184:-0.5 185:0.333333 186:-0.142857 187:-0.714286 188:-0.333333 189:-0.714286 190:-0.714286 191:-1 192:-0.428571 193:-0.6 195:-1 196:-0.333333 197:-0.666667 198:0.2 199:-0.333333 200:-1 201:-0.333333 203:-0.2 204:-0.666667 205:-0.714286 208:-0.666667 209:-1 210:-0.5 211:-0.428571 212:-0.666667 213:-1 214:-1 215:-0.75 216:-1 217:-0.111111 218:-0.2 219:-1 220:-0.428571 221:-0.5 222:-1 223:0.25 224:-1 225:-0.75 226:-0.777778 227:-0.75 228:-0.333333 229:-0.777778 230:-0.555556 231:-0.2 232:-0.428571 233:-0.777778 234:-0.5 235:-0.5 236:-1 237:-0.666667 238:-0.777778 240:-0.2 241:-1 242:-0.714286 243:-0.666667 244:-0.666667 245:-0.714286 246:-0.666667 247:-0.666667 248:-0.333333 249:0.142857 250:0.333333 251:-0.666667 252:-1 253:-0.5 254:-1 255:-0.714286 256:-0.75 257:-1 258:-0.666667 259:-0.666667 260:-0.5 261:-0.333333 262:-1 263:-0.333333 265:-0.666667 267:0.2 268:-1 269:-0.714286 271:-1 272:-1 273:-0.5 274:-1 275:-0.428571 276:-0.6 277:-0.666667 278:-0.428571 279:-0.8 281:-0.333333 282:-0.714286 283:-1 284:-0.714286 285:-0.428571 286:-1 287:0.142857 288:-0.714286 289:-0.2 290:-0.333333 291:-0.714286 292:-0.428571 293:-1 294:-0.714286 295:-0.777778 296:-0.666667 297:-0.142857 298:-0.428571 299:-0.142857 300:-0.666667 301:-1 302:-1 303:-0.666667 304:-1 305:-1 306:-0.333333 308:-1 309:-0.333333 310:-0.714286 311:-1 312:-0.428571 313:0.5 314:-0.555556 315:-0.2 316:-0.333333 317:-1 318:0.25 320:-1 321:-0.142857 322:-0.714286 323:-1 325:0.555556 326:-0.714286 327:-0.714286 328:-1 329:0.2 330:-0.428571 331:-0.333333 332:-0.142857 333:-0.333333 334:-0.714286 335:-0.714286 336:-1 337:-0.428571 338:-0.75 339:-0.666667 340:-0.142857 341:-1 342:-0.714286 343:-1 344:-0.714286 345:-1 346:-0.6 347:-1 348:-0.6 350:-0.75 351:-0.6 352:-0.6 353:-0.714286 354:-1 355:-0.142857 356:-1 358:-0.333333 359:-0.714286 360:-0.333333 361:-0.555556 362:-0.333333 363:-0.6 364:-0.428571 365:-0.75 366:-0.714286 367:0.333333 368:-0.2 369:-0.666667 370:-0.428571 371:-1 372:-0.714286 373:0.2 374:0.142857 375:-0.454545 376:-0.5 377:-0.6 378:-0.666667 380:-1 381:-0.555556 382:-1 383:-1 384:-1 385:-0.333333 386:-1 388:-1 389:-0.25 391:-0.6 392:-1 393:-0.6 394:-0.6 395:-1 396:-0.666667 397:-1 398:-1 399:0.142857 400:-0.75 401:1 402:-1 403:-0.666667 404:-0.666667 405:-1 406:-0.666667 407:-0.25 408:-1 409:-0.714286 410:-0.5 411:-0.555556 412:-1 413:-1 414:-0.714286 416:-0.666667 417:-0.714286 418:-1 419:-0.666667 420:-0.8 421:-1 422:-0.333333 423:-0.6 424:-0.571429 425:-0.666667 426:-0.6 427:-0.5 429:-1 430:-1 431:-0.333333 432:-0.666667 433:-0.428571 434:-1 435:-1 436:-1 437:-0.5 438:-1 439:-0.428571 440:-0.428571 441:-0.714286 442:-0.666667 444:-0.777778 445:-1 446:-1 447:-0.666667 448:0.428571 449:-0.142857 450:-0.25 452:-0.75 453:-0.6 454:-1 455:-0.25 456:-0.75 457:-0.714286 458:-0.111111 459:-0.25 460:-0.666667 461:-0.555556 462:-0.666667 463:-1 464:-0.818182 465:-0.75 466:-1 467:-1 468:-0.5 469:-0.714286 470:-0.75 471:-1 472:-0.5 473:-0.75 474:-0.142857 476:-0.333333 477:-1 478:-1 479:-1 480:-0.666667 481:-1 483:-0.428571 484:-0.714286 485:-0.8 486:-0.2 487:0.2 488:-0.6 489:-1 491:-1 492:-0.6 493:-0.666667 494:-0.666667 495:-1 496:-0.75 497:-0.714286 499:-0.666667 500:-0.333333 501:-0.333333 502:-0.714286 503:0.6 504:-0.2 505:-0.5 506:-0.866667 507:-0.142857 508:-0.714286 509:-0.666667 510:-0.25 511:-0.8 512:-0.714286 513:-0.714286 514:-0.714286 515:-1 516:-0.777778 517:-0.666667 518:-0.428571 519:0.5 520:-0.75 521:0.2 522:-0.75 523:-0.428571 524:-1 525:-0.333333 526:-0.6 527:-0.333333 528:-0.333333 529:-1 530:-0.714286 531:-0.5 532:-0.2 533:-0.25 534:-1 536:-0.666667 537:-0.714286 538:-0.142857 539:-1 540:-0.75 541:-0.25 542:-0.25 543:0.333333 544:-0.2 545:-0.285714 546:-1 547:-0.2 548:-1 549:-0.5 550:-0.714286 551:-1 552:-0.75 553:-0.2 554:-0.428571 555:1 556:-1 557:-0.333333 558:-0.428571 559:-0.5 560:-0.333333 561:-0.777778 562:-0.714286 563:-0.714286 565:0.142857 566:-1 567:-0.666667 568:-0.777778 569:-1 570:-1 571:-0.428571 572:-1 573:-0.8 575:-1 577:-0.636364 578:-0.666667 579:-0.8 580:-0.6 581:-0.6 582:-0.333333 583:-1 584:-0.636364 585:-0.777778 586:-0.333333 587:-0.333333 588:-1 589:-0.666667 590:-0.428571 591:0.333333 592:-0.25 593:0.2 594:-1 595:-1 596:-1 597:-0.6 598:-0.333333 599:-1 600:-1 601:-0.428571 602:-0.2 603:-0.6 604:-0.5 605:-1 606:-1 607:-0.428571 609:-1 610:-0.666667 611:0.25 612:-1 613:-1 614:-0.333333 615:-0.428571 616:0.2 617:-1 618:-0.666667 619:-0.777778 620:-0.333333 622:-0.333333 623:-0.714286 624:-0.5 625:0.2 626:-0.333333 627:-0.666667 628:-0.8 629:-0.666667 630:-1 631:-1 632:-0.833333 633:-0.666667 634:-1 635:-1 636:-1 637:-1 638:-0.666667 640:-1 641:-1 642:-1 643:-0.75 644:0.333333 645:-0.777778 646:-0.428571 647:-0.777778 648:-0.428571 649:-1 650:-0.714286 651:-1 652:-0.142857 653:-0.428571 654:-0.833333 655:-1 656:-0.714286 657:-0.428571 658:-0.555556 659:-0.777778 660:0.6 661:-0.6 662:-0.75 663:-0.625 664:-1 665:-0.666667 667:-1 669:-0.666667 670:-1 671:-1 673:-0.6 674:-0.333333 675:-1 676:-0.75 677:-1 678:-1 679:-0.6 680:-0.5 681:-1 682:-1 683:0.6 684:-0.714286 685:-0.333333 686:-0.714286 687:-0.5 688:-0.75 690:-0.428571 691:-0.25 692:-0.714286 693:-0.6 694:-0.666667 695:-0.6 696:-0.666667 697:-0.666667 699:-0.2 700:-1 701:-0.714286 702:-0.428571 703:-1 704:-1 705:-1 706:-0.714286 707:-0.428571 708:-0.466667 709:-0.142857 710:-0.333333 711:-0.666667 712:-1 713:-0.5 714:-1 715:-0.4 717:-0.5 718:-0.714286 719:-1 720:-0.428571 721:-0.714286 722:-0.666667 723:-0.25 724:1 725:-0.714286 726:-0.142857 727:-0.6 728:-0.666667 729:-0.25 730:-0.333333 731:-0.5 732:-0.454545 733:-0.25 734:-1 735:-0.666667 736:-1 737:-0.6 738:-1 739:-0.333333 741:-0.333333 742:-1 743:-1 744:-0.25 745:-0.666667 746:-0.666667 747:-1 748:-1 749:-0.5 750:-1 751:-0.666667 752:-0.666667 753:-0.666667 754:-0.777778 755:-0.333333 756:-1 757:-0.714286 758:-0.714286 759:-0.714286 760:-0.333333 761:-0.714286 762:-1 763:-1 764:-0.5 765:-1 766:-0.333333 767:-0.75 768:-0.714286 769:-0.428571 770:-0.8 771:1 772:-0.142857 773:-0.666667 774:-0.6 775:-1 776:-0.428571 777:-0.454545 778:-0.666667 779:-0.142857 780:-1 781:-1 782:-0.2 783:-0.333333 784:-1 785:-0.714286 786:-0.142857 787:-0.333333 788:-0.714286 789:-1 790:-0.75 791:-0.666667 792:-0.666667 793:-0.142857 794:-0.5 795:-1 796:-1 797:-0.6 798:0.428571 799:-1 800:-1 801:-0.666667 802:-1 803:-1 804:-0.2 805:-0.5 806:-1 807:0.5 808:-1 809:-0.25 810:0.2 811:-0.666667 812:-0.142857 813:-1 814:-0.142857 815:-0.6 816:-0.25 817:-0.428571 818:-0.25 819:-0.818182 820:-0.2 821:-0.333333 822:-1 823:-0.714286 824:-1 825:-0.2 826:-1 827:-0.777778 828:-1 829:-1 830:-0.75 831:-0.333333 832:-0.5 833:-0.333333 834:-0.8 835:-0.714286 837:1 838:-0.5 839:-1 841:-0.333333 842:-1 843:-1 844:-1 845:-0.666667 846:-0.636364 847:0.142857 848:-0.666667 850:-0.6 851:-0.714286 852:-1 853:0.5 854:-0.714286 855:-0.333333 856:-0.2 857:-1 858:-0.333333 859:-0.777778 860:-0.8 861:-0.2 862:-0.2 863:-1 864:-1 865:-0.777778 866:-1 867:-0.75 868:-0.428571 869:-0.75 870:-0.666667 871:0.25 873:-0.777778 874:-1 875:-1 876:-1 877:-0.333333 878:-0.25 879:0.142857 880:-0.75 881:-0.636364 882:-0.6 883:-0.8 884:-1 885:-0.333333 886:-0.777778 887:-0.714286 888:-0.666667 889:-0.714286 890:-1 891:-0.5 892:0.714286 893:-0.428571 894:0.666667 895:-1 896:-1 897:-1 898:-0.666667 899:-1 900:-1 901:-0.777778 902:-0.5 903:-0.2 904:-0.666667 905:-1 906:-0.818182 907:-0.8 909:-0.777778 910:-1 911:-0.692308 912:-0.2 913:-0.428571 914:-0.6 915:-0.111111 916:-1 917:-0.714286 918:-0.75 919:-0.5 921:-0.5 922:-0.666667 923:-0.333333 924:-0.333333 925:-0.333333 926:-1 927:0.333333 928:-0.714286 929:-0.846154 930:-0.6 931:-1 932:-0.666667 933:-0.333333 934:-0.8 935:-1 936:-0.714286 937:-0.5 938:-0.833333 939:-0.818182 940:-1 941:0.5 942:-1 943:-0.714286 944:-1 945:-0.714286 946:-0.666667 947:-0.6 948:-1 949:-0.5 950:-0.428571 951:-1 952:-0.714286 953:-1 954:-0.714286 956:-1 957:-1 958:-1 959:-0.142857 960:-1 962:-0.777778 963:-0.6 964:0.142857 965:-0.333333 966:-0.333333 967:-0.692308 969:-0.714286 970:-0.5 971:-0.428571 972:-0.75 973:-1 974:-0.571429 975:0.2 976:-1 977:-0.666667 978:-0.714286 979:-0.8 980:-1 981:-1 982:-0.666667 983:-0.333333 984:-0.777778 985:-1 986:-1 987:-0.6 988:-0.5 989:-0.666667 990:-1 992:1 994:-0.777778 995:-0.5 996:-0.777778 997:-1 998:-1 999:-0.2 1000:-0.6 1001:-0.6 1002:-0.666667 1003:-1 1004:-0.8 1005:-0.75 1006:-0.6 1007:-0.818182 1008:-1 1009:-1 1010:-0.75 1011:0.2 1012:-0.846154 1013:-0.666667 1014:-0.6 1015:-0.5 1016:-1 1017:-0.333333 1018:-0.714286 1019:-1 1020:-1 1022:-1 1023:-0.666667 1024:-0.428571 1025:-0.333333 1026:-0.384615 1027:-0.428571 1028:-0.25 1029:-1 1030:0.5 1031:-1 1032:-0.6 1033:-1 1034:-0.5 1035:-1 1036:-0.428571 1037:-0.666667 1038:0.5 1039:0.333333 1041:-1 1042:-0.2 1043:-1 1044:-0.25 1045:-0.5 1046:-1 1047:-0.666667 1048:-1 1049:-1 1050:-0.833333 1051:-1 1052:-0.75 1053:0.2 1054:-0.5 1055:-0.714286 1056:-0.714286 1057:-0.4 1058:-0.6 1059:-0.6 1060:-0.333333 1061:-0.5 1062:-0.833333 1063:-1 1064:-0.666667 1065:-1 1066:-1 1067:0.142857 1068:-0.6 1069:-0.25 1070:-0.714286 1071:-1 1072:-0.333333 1073:-0.714286 1074:-0.8 1075:-0.5 1076:-0.2 1077:-0.6 1078:-0.384615 1079:0.714286 1080:-1 1081:-1 1082:-0.666667 1083:-0.555556 1084:-0.333333 1085:-0.636364 1086:-0.75 1087:-0.428571 1088:-0.818182 1089:-0.714286 1090:-1 1091:-0.666667 1092:-0.6 1093:-0.714286 1094:-0.777778 1095:-0.666667 1096:-0.2 1097:-0.777778 1098:-0.714286 1099:-0.666667 1100:-0.142857 1101:-0.333333 1102:-0.428571 1103:0.5 1104:-1 1105:-1 1106:-0.428571 1107:-1 1108:-0.636364 1109:-0.2 1110:-0.333333 1111:-0.333333 1112:-0.2 1113:-0.333333 1114:-1 1115:-0.333333 1116:-0.5 1117:-0.666667 1118:-0.714286 1119:-0.333333 1120:-0.5 1121:-0.5 1122:-0.833333 1123:-1 1124:-1 1125:-0.25 1126:-1 1127:-0.0769231 1128:-1 1129:-0.5 1130:-0.636364 1131:-0.25 1132:-1 1133:-0.714286 1134:-0.333333 1135:-1 1136:-0.666667 1137:-0.714286 1138:-1 1139:-1 1140:-0.714286 1141:-1 1142:-0.333333 1143:-1 1144:-0.142857 1145:-0.8 1146:-0.6 1147:-0.25 1148:-0.5 1149:-0.5 1150:-1 1151:-0.714286 1152:-1 1153:-0.818182 1154:-0.666667 1155:-0.5 1156:-0.555556 1157:-1 1159:-0.833333 1160:-0.666667 1162:-0.714286 1163:-0.75 1164:-1 1165:0.6 1166:-1 1167:-0.6 1168:-0.666667 1169:-0.75 1170:0.333333 1172:-1 1173:-0.833333 1174:-0.777778 1175:-0.714286 1176:-0.833333 1177:-0.714286 1178:-1 1179:-1 1180:-1 1181:-1 1182:-0.6 1183:-0.25 1184:-0.333333 1185:-0.75 1186:-0.833333 1187:-0.666667 1188:-0.333333 1189:-0.333333 1190:-0.75 1191:-0.846154 1192:-0.666667 1193:-0.428571 1194:-1 1195:-1 1196:-0.5 1197:-1 1198:-0.6 1199:-1 1200:-0.75 1201:-0.8 1202:0.333333 1203:-0.75 1204:-0.777778 1205:-1 1206:-0.428571 1207:-0.2 1208:-0.714286 1209:-0.5 1211:-0.777778 1212:-1 1213:-0.333333 1214:-1 1215:-1 1216:-1 1217:-0.333333 1218:-0.555556 1219:-0.777778 1220:-0.142857 1221:-0.714286 1222:-1 1223:-0.333333 1224:-1 1225:-0.625 1226:-0.8 1227:-0.75 1228:-0.777778 1229:-0.555556 1230:-1 1231:-1 1232:-1 1233:-0.8 1234:-0.666667 1235:0.333333 1236:-1 1237:-0.428571 1238:-0.666667 1239:-0.428571 1240:-1 1241:-0.333333 1242:-1 1243:-1 1244:-1 1245:-0.8 1246:-1 1247:-1 1248:-0.714286 1249:-1 1250:-0.333333 1251:-0.142857 1252:-0.666667 1253:-1 1254:-0.75 1255:-0.6 1256:-0.75 1257:-0.714286 1258:-0.5 1259:-0.142857 1260:-0.428571 1261:0.25 1262:-0.5 1263:-0.714286 1264:-1 1265:-0.5 1266:-1 1267:-0.142857 1268:-1 1269:-0.714286 1270:-0.714286 1271:-0.636364 1272:-0.333333 1273:-0.5 1274:0.142857 1275:-0.714286 1277:-1 1278:-0.2 1279:-1 1280:-0.75 1281:-1 1282:-0.25 1283:0.333333 1284:0.5 1285:-0.714286 1286:-1 1287:-1 1288:-1 1289:-0.5 1290:-0.75 1291:-0.333333 1294:-0.285714 1295:-0.333333 1296:-1 1297:-0.666667 1298:-0.2 1299:-1 1300:-1 
0.004565812154660615 1:-0.714286 2:-0.666667 3:-1 4:-1 5:-1 6:-1 7:-1 9:-1 10:-0.6 11:0.6 12:-1 13:-0.714286 14:-1 15:-1 16:-0.333333 17:-1 18:-0.5 19:-1 20:-0.714286 21:-0.5 22:-1 23:-1 24:-1 25:-0.6 26:-0.142857 27:-0.25 28:-0.75 29:-1 30:-1 31:-1 32:-0.428571 33:-0.777778 34:-1 35:-0.666667 36:-0.777778 37:-1 38:-0.75 40:-0.714286 41:-1 42:-0.75 43:-1 44:0.428571 45:-0.25 46:-1 47:-0.5 48:-1 49:-0.777778 50:-1 51:-1 52:-1 53:0.2 54:-0.428571 55:0.2 56:-1 57:-1 58:-0.428571 59:-0.777778 60:-1 61:-0.714286 62:-1 63:-1 64:-0.5 65:-0.2 66:-0.818182 67:-0.75 68:-0.2 69:-1 70:-1 71:-0.714286 72:-1 73:-1 74:-1 75:0.142857 76:-0.666667 77:-0.333333 78:-1 79:-0.142857 80:-0.714286 81:0.6 82:-1 83:-0.25 84:-0.777778 85:-0.428571 86:-0.428571 87:-0.777778 88:-0.666667 89:-0.666667 90:-1 91:-0.75 92:-0.75 93:-1 94:-0.714286 95:-0.428571 96:-0.818182 97:0.666667 98:-0.666667 99:-1 100:-1 101:-0.428571 102:-0.5 103:-0.8 104:-0.75 105:-0.714286 106:-0.6 107:-1 108:-0.6 109:-1 110:-1 111:-0.4 112:-1 113:-0.5 114:-1 115:-0.666667 116:-1 117:-0.714286 118:-0.714286 119:-0.5 120:-1 122:-1 123:-1 124:-0.666667 125:-0.75 126:-0.75 127:-1 128:0.333333 130:-0.333333 131:-1 132:-0.666667 133:0.6 134:-1 135:-1 136:-1 137:-1 138:-0.428571 139:-0.8 140:-1 141:-0.714286 142:-1 143:-0.555556 144:-0.666667 145:-0.777778 146:0.428571 147:-1 148:0.142857 149:-0.428571 150:-0.666667 151:-1 152:-1 153:-0.666667 154:-1 155:-0.333333 156:-1 157:0.6 158:-0.6 159:-0.428571 160:-1 161:-0.333333 162:-0.333333 163:-0.666667 164:0.142857 165:-0.428571 166:-0.5 167:-0.333333 168:-0.8 169:-0.75 170:-1 171:-0.75 172:-0.6 173:-1 174:-0.5 175:0.142857 176:-0.777778 177:-0.666667 178:-0.666667 179:-1 180:-0.555556 181:-1 182:-1 183:-1 185:-1 186:-1 187:-0.714286 188:-1 189:-1 190:-1 191:0.111111 192:-1 193:-0.6 194:-0.6 195:-1 197:-0.666667 198:-0.6 199:-0.555556 200:-0.8 201:-1 202:-0.666667 203:-1 204:-1 205:-0.428571 206:-0.333333 207:-1 209:-1 211:-1 212:-0.333333 213:-0.6 214:-0.555556 215:-0.75 216:-0.714286 217:-0.555556 218:0.6 219:-0.142857 220:-0.428571 221:-0.5 222:0.142857 224:-0.428571 225:-1 226:-1 227:-0.5 228:-1 229:-0.777778 230:-0.555556 231:-0.2 232:-1 233:-0.777778 234:-0.75 235:-0.5 237:-1 238:-1 240:0.2 241:-0.428571 242:-0.142857 244:-1 245:-0.714286 246:-0.666667 247:-0.666667 248:-0.333333 249:-1 250:-1 251:-0.666667 252:-0.5 254:-0.777778 255:0.142857 256:-1 257:-0.818182 258:-1 259:-0.666667 260:-0.75 261:-1 262:-0.714286 263:-0.666667 264:-0.333333 265:0.666667 266:-0.25 267:-0.6 269:-0.428571 270:-0.333333 271:0.6 272:0.2 273:-0.25 275:-0.714286 276:-0.6 277:-0.666667 278:-0.714286 279:-1 281:-1 282:-0.142857 283:-1 284:-0.714286 285:-0.714286 286:-0.5 287:-0.714286 288:-0.714286 289:-0.6 290:-1 291:0.142857 292:-1 293:-0.8 294:-0.428571 295:-1 296:0.333333 297:-0.714286 298:0.428571 299:-0.714286 300:-0.333333 301:-0.428571 302:-0.428571 303:-1 304:-0.142857 305:0.2 308:-1 309:-1 310:-0.142857 311:-0.833333 312:-1 314:-0.777778 315:-1 317:-0.333333 318:-0.5 319:-0.666667 320:-1 321:0.142857 322:-0.428571 324:0.333333 325:-0.555556 326:-0.428571 327:-0.714286 328:-0.25 329:-0.2 330:-0.714286 331:-0.666667 332:-0.428571 333:-0.333333 334:0.142857 335:0.142857 337:-0.714286 338:-0.25 339:-1 340:0.142857 341:-1 342:-0.714286 343:-0.8 344:-1 345:-0.2 346:-0.8 347:-0.8 348:-1 349:-1 350:-0.5 351:0.2 352:-1 353:-1 355:-0.428571 356:-1 357:-0.5 358:-0.333333 359:-0.142857 360:-1 361:-1 362:-0.333333 363:-0.4 364:-1 365:-1 366:-0.714286 367:-0.333333 368:-1 369:-0.666667 370:-1 371:-1 372:-1 373:-1 374:-1 375:-0.0909091 376:-1 377:0.2 378:1 379:-1 380:-0.5 381:-1 382:-0.428571 383:-1 384:-0.2 385:-0.666667 386:-1 387:-1 388:-0.714286 389:-0.25 390:-0.666667 391:0.6 392:-1 393:1 394:-1 395:-0.2 396:-0.666667 397:-0.454545 398:-0.8 399:-1 400:-1 401:-0.6 402:-0.428571 403:-1 404:-0.666667 405:-0.4 406:-0.333333 407:-1 408:-0.333333 409:-1 410:0.5 411:-0.777778 412:-1 413:-1 414:-0.428571 415:-0.5 416:-0.333333 417:-1 418:-1 419:-1 421:0.333333 422:-1 423:-1 424:-0.857143 425:-0.666667 426:-0.2 427:-0.75 428:-0.333333 429:-0.8 430:-0.2 431:-1 432:-1 433:-0.714286 434:-0.5 435:-0.111111 436:-0.846154 437:-0.5 438:-0.5 439:-1 440:-1 441:-0.428571 442:-0.666667 443:-0.5 444:-1 445:-0.666667 446:-1 447:-0.666667 448:-1 449:1 450:-1 451:-0.25 452:-0.5 453:0.2 454:-0.777778 455:-0.75 456:-0.5 457:-0.142857 458:-1 459:-1 460:-0.333333 461:0.111111 462:-1 463:-1 464:-0.818182 465:-0.75 466:-0.8 467:-0.6 468:-1 469:-0.714286 470:-0.5 471:-0.8 472:-1 473:-0.5 474:0.142857 475:-0.666667 477:-1 478:-0.333333 479:-0.454545 480:-0.666667 481:-0.2 483:-0.714286 484:-0.428571 485:-0.6 486:-1 487:-0.2 488:-0.6 489:-0.5 490:-1 491:-1 492:-1 493:-0.666667 494:-0.666667 495:-0.714286 496:-1 497:-1 499:-1 500:-1 501:-1 502:-0.714286 503:-0.2 504:-0.2 506:-0.866667 507:-1 508:-1 509:-0.333333 510:-0.75 511:-0.8 512:-0.428571 513:-0.142857 514:0.142857 515:-0.714286 516:-1 517:-1 518:-0.714286 519:-0.5 520:-1 521:-0.2 522:-0.5 523:-0.428571 524:-0.555556 525:-0.666667 526:-1 528:-1 529:0.142857 530:-1 531:-1 532:-0.6 533:-1 534:-0.5 535:-0.75 536:-0.666667 537:-0.428571 538:0.142857 539:-0.636364 543:-1 544:-0.2 545:-0.857143 546:-0.5 547:-1 548:-0.555556 549:0.5 550:0.142857 551:-1 552:-0.75 554:-1 555:-0.333333 556:-1 557:-0.333333 558:-0.428571 560:-1 561:-0.777778 562:-0.142857 563:-0.428571 564:-0.666667 565:-0.714286 566:-0.2 567:-0.666667 568:-1 569:-0.75 570:-0.555556 571:-0.142857 572:0.333333 573:-0.8 574:-1 575:-0.5 576:-0.333333 577:-0.818182 578:-1 579:-1 580:-1 581:-0.2 582:-1 583:-0.75 584:-0.818182 585:-0.777778 586:-0.777778 587:-0.333333 589:-1 590:-0.714286 592:-0.75 593:-0.2 594:-1 595:0.2 596:-0.333333 597:-1 598:-1 599:-0.8 600:-1 601:-1 602:-1 603:-1 604:-0.5 605:0.2 606:-0.866667 607:0.428571 609:-0.6 611:-1 613:-0.6 614:-1 615:-0.142857 616:-0.2 617:-0.428571 618:-0.333333 619:-1 620:-0.333333 621:-1 622:-0.666667 623:-0.714286 624:-1 625:-0.6 626:-1 627:-0.666667 628:-0.2 629:-0.666667 630:-0.333333 631:0.333333 633:-0.666667 634:-0.5 635:-1 636:-1 637:-0.75 639:-0.666667 641:-1 642:-0.714286 643:-0.5 644:-1 645:-0.777778 646:-1 647:-0.333333 648:-0.714286 649:-0.8 650:-1 651:-1 652:0.142857 653:-1 654:-0.833333 655:-0.5 656:-0.142857 657:-0.142857 658:-1 659:-0.777778 660:-1 661:-1 662:-1 663:-0.875 664:-0.833333 665:-1 666:-0.5 668:-0.333333 670:-0.833333 671:-0.714286 672:-0.5 673:-0.6 674:-1 675:-0.666667 676:-0.75 677:-0.428571 678:-0.142857 679:0.2 681:-0.142857 683:0.2 684:-0.714286 685:-1 686:-0.428571 687:-1 688:-0.5 689:-1 690:-1 691:-1 692:-0.714286 693:-0.8 694:-1 695:-1 696:-1 697:-1 698:-0.666667 699:-0.2 700:-0.5 701:-0.428571 702:-0.714286 703:-0.846154 704:-0.333333 705:0.142857 706:-1 707:-1 708:-0.866667 709:0.142857 710:-0.666667 711:-0.666667 714:-1 715:-1 716:-1 717:-0.5 718:-0.714286 719:-1 720:-0.714286 721:-0.714286 722:-0.333333 723:-0.25 724:-1 725:-1 726:-0.714286 727:-0.2 728:0.333333 729:-1 730:-1 731:-1 732:-1 733:0.25 734:-0.6 735:-0.666667 736:0.111111 737:-0.2 738:-0.75 739:0.666667 740:0.666667 743:-0.25 744:-0.5 745:-1 747:-0.5 748:-0.714286 749:-0.5 750:-0.5 752:-0.333333 753:-1 754:-1 755:-1 756:-0.6 757:-0.714286 758:0.714286 759:-0.714286 761:-0.714286 762:-0.666667 763:-0.428571 764:-1 766:1 767:-1 768:0.142857 769:0.142857 770:-0.4 771:-0.5 772:-0.142857 773:-0.666667 774:-1 775:-0.333333 776:0.714286 777:-0.454545 778:-0.333333 779:-1 780:-1 781:-0.142857 782:-0.6 783:-0.666667 785:-1 786:0.142857 787:0.333333 788:-1 789:-0.25 790:-0.75 791:-1 793:0.142857 794:-0.25 795:-0.666667 796:-1 797:-0.6 798:-1 799:-1 800:-0.4 801:-1 802:-0.555556 803:-1 804:-0.2 805:-0.25 806:0.333333 807:-0.5 808:-1 809:-0.25 810:-1 811:-1 812:-0.142857 813:-1 814:-0.714286 815:-1 816:-0.75 817:-1 818:-0.75 819:-0.636364 820:-0.6 822:-0.636364 823:-0.428571 824:-0.25 825:-0.6 826:-0.2 827:-1 828:-0.25 829:-1 830:-1 831:-0.666667 832:-0.75 833:-0.777778 834:-0.4 835:-1 836:-1 837:-0.5 838:-1 839:-0.714286 840:-0.5 841:-0.777778 843:-1 844:-0.142857 845:-0.666667 846:0.0909091 847:-0.142857 848:-1 849:-0.5 850:-0.8 851:-0.142857 852:-1 854:-0.142857 855:-1 856:-1 857:-0.333333 858:-0.666667 859:-0.777778 860:-1 861:-0.6 862:-0.6 863:-0.818182 864:0.25 865:-1 866:-0.2 867:-0.5 868:-1 869:-0.75 870:-0.666667 871:-1 872:-1 873:-0.333333 874:0.333333 875:-0.2 876:-0.666667 877:-1 878:0.25 879:-0.428571 880:-0.75 881:-0.818182 882:-0.2 883:-1 885:0.333333 886:-0.777778 887:-0.428571 888:0.666667 889:0.714286 890:-0.75 891:-0.75 892:-0.428571 893:-0.142857 894:-0.666667 895:-0.5 896:-0.846154 897:-0.333333 898:-1 899:0.333333 900:-0.333333 901:-0.555556 902:-0.75 903:-0.8 904:1 905:-0.333333 906:-1 907:-0.8 908:-0.5 909:-0.555556 910:-0.25 911:0.0769231 912:-1 913:-0.714286 914:-1 915:-1 916:1 917:-0.428571 918:-0.25 919:-0.5 920:-0.5 921:-0.5 923:-0.333333 924:-1 925:-0.333333 927:-0.333333 928:-1 929:-1 930:-0.6 931:-1 932:-1 933:-0.333333 934:-1 935:-0.666667 936:-0.428571 937:-0.5 938:-0.833333 939:-0.636364 940:-0.6 941:-0.5 942:-1 943:-0.142857 944:-0.25 945:-0.714286 946:-0.333333 947:-0.6 948:-0.846154 949:-0.5 950:-0.142857 951:-1 952:0.428571 953:-0.8 954:-0.428571 955:-0.5 956:-0.714286 957:-0.636364 958:-0.2 959:-0.428571 960:-0.333333 961:-1 962:-0.111111 963:-0.2 964:-0.714286 965:-0.333333 966:-0.666667 967:-1 968:0.333333 969:0.142857 970:-0.5 971:-0.714286 972:-0.75 973:-0.777778 974:-0.714286 975:-0.2 976:-0.111111 977:-0.333333 978:-0.428571 979:-1 980:-0.333333 981:-0.833333 982:0.666667 984:-0.333333 985:-0.272727 986:-0.5 987:-1 989:-0.333333 990:-1 992:-0.6 993:-0.666667 994:-0.333333 996:-1 997:-0.714286 998:-0.666667 999:-0.4 1000:-0.6 1001:-0.8 1002:-0.666667 1003:-0.25 1004:-1 1005:-0.75 1006:0.2 1007:-0.636364 1008:-0.111111 1009:-0.428571 1010:0.5 1011:-1 1012:-1 1013:-0.666667 1014:0.2 1015:-0.5 1016:-0.333333 1017:-1 1018:0.142857 1019:-0.428571 1020:-1 1021:-0.333333 1022:-0.555556 1023:-1 1024:-1 1025:-0.333333 1026:-0.384615 1027:-0.714286 1028:-0.5 1029:-0.714286 1032:-1 1033:-0.6 1034:-1 1035:-0.714286 1036:-0.714286 1037:-1 1039:-1 1041:-0.666667 1042:-0.6 1043:-0.555556 1044:-0.5 1045:-1 1046:0.2 1047:-0.666667 1048:-0.333333 1049:-0.5 1050:-1 1051:-1 1052:-0.5 1053:0.2 1054:-0.75 1055:-1 1056:-0.714286 1057:-1 1058:-1 1059:-1 1060:-0.666667 1061:-1 1062:-0.666667 1063:-0.666667 1064:-0.333333 1065:-0.333333 1067:-1 1068:-0.6 1069:-0.75 1070:-1 1071:-1 1072:-0.333333 1073:-0.428571 1074:-0.8 1076:-0.6 1077:-0.6 1078:0.538462 1079:-0.428571 1080:-0.666667 1081:-0.714286 1082:-0.333333 1083:-0.777778 1084:-0.333333 1085:-0.636364 1086:-0.5 1087:-0.428571 1088:-0.818182 1089:-0.428571 1090:-0.8 1091:-0.666667 1092:0.6 1093:-1 1094:-1 1095:-1 1096:-0.6 1097:-0.555556 1098:-1 1099:-0.666667 1100:-0.428571 1102:-0.428571 1103:-1 1104:-0.333333 1105:-0.6 1106:-0.428571 1107:-0.6 1108:-1 1109:-0.2 1110:-0.666667 1111:-0.555556 1112:-0.6 1114:-1 1115:-0.111111 1116:-0.5 1117:-0.666667 1118:-0.428571 1119:-0.555556 1120:-1 1121:-0.25 1122:-0.666667 1123:-0.5 1124:-0.666667 1125:-1 1126:0.666667 1127:-0.230769 1128:-1 1129:0.333333 1130:-1 1131:-0.5 1132:-0.818182 1133:-0.428571 1134:-1 1135:-0.5 1136:-0.666667 1137:-0.428571 1138:-0.833333 1139:-0.555556 1140:-0.714286 1141:-0.833333 1142:-1 1143:-1 1144:0.142857 1145:-0.8 1146:-1 1147:-0.75 1148:-0.5 1149:-1 1150:-0.6 1151:-1 1152:-0.75 1153:-0.818182 1154:-0.666667 1155:-0.833333 1156:-0.111111 1157:0.5 1158:-1 1159:-0.666667 1160:-0.666667 1161:-0.666667 1162:-0.714286 1163:-1 1164:-0.5 1165:0.2 1166:-0.5 1167:-0.2 1168:-0.666667 1169:-1 1170:-0.333333 1172:-0.833333 1173:-0.5 1174:-1 1175:-1 1176:-0.666667 1177:-0.714286 1178:-0.777778 1179:-0.333333 1180:-1 1181:-0.111111 1182:-1 1183:-0.5 1184:-1 1185:-0.625 1186:-0.5 1187:-0.333333 1188:-0.666667 1189:-0.333333 1190:-0.5 1191:-0.692308 1193:-0.428571 1194:-0.555556 1195:-1 1196:-0.5 1197:-0.428571 1198:1 1199:-0.2 1200:-1 1201:-0.2 1202:-0.333333 1203:-0.5 1204:-0.111111 1205:-0.846154 1206:-1 1207:-0.6 1208:-0.571429 1209:-0.75 1210:-0.5 1211:-0.777778 1212:0.2 1213:-0.333333 1214:-0.5 1215:-0.6 1216:-0.4 1217:-0.333333 1218:-0.555556 1219:-0.777778 1220:-0.714286 1221:-1 1222:-0.714286 1223:-1 1224:-0.5 1225:-0.625 1226:-0.6 1227:-0.75 1228:-0.777778 1229:-0.777778 1230:-0.555556 1231:-0.5 1232:-0.666667 1233:-0.4 1234:-0.666667 1236:-0.428571 1237:-1 1238:-0.666667 1239:-0.714286 1240:-1 1241:-0.666667 1242:-0.6 1243:-0.6 1245:-0.8 1247:-1 1248:-1 1249:-1 1250:-1 1251:-0.428571 1252:-0.666667 1253:-1 1254:-0.5 1255:-1 1256:-0.5 1257:-0.428571 1258:-1 1259:-1 1260:-0.428571 1261:0.25 1262:-0.5 1263:-1 1264:-0.846154 1265:-0.5 1266:-0.777778 1267:-0.142857 1268:-0.833333 1269:-0.428571 1270:-0.714286 1271:-1 1272:-0.333333 1274:0.142857 1275:-0.428571 1276:-0.333333 1277:-0.666667 1278:-0.6 1279:-0.5 1280:-0.5 1281:-1 1282:-1 1283:-0.333333 1284:-1 1285:-0.714286 1286:-0.75 1287:-1 1288:-0.636364 1289:-1 1291:0.333333 1293:-0.5 1294:-1 1295:-0.555556 1296:-0.111111 1297:-0.666667 1298:-1 1299:0.5 1300:-0.25 
0.004995708148711463 1:-0.428571 2:-0.666667 3:-0.2 4:-1 5:-0.2 6:-0.333333 7:-0.777778 8:-0.333333 9:-0.333333 10:-0.2 11:-1 12:-0.333333 13:-0.714286 14:-0.333333 15:-0.777778 16:-1 17:-0.714286 18:-1 19:-0.333333 20:-0.428571 21:-0.5 22:-1 23:-1 24:-0.333333 25:-1 26:-0.714286 27:-0.5 28:-1 29:-0.666667 30:-1 31:-0.428571 32:-1 33:-1 34:-0.714286 35:-0.666667 36:-1 37:-0.333333 38:-1 39:-1 40:-0.142857 41:-0.714286 42:-0.5 43:-1 44:-0.714286 45:-0.25 46:-0.333333 48:1 49:-1 50:-0.714286 51:-1 52:-1 53:-0.2 54:-0.428571 55:-0.2 56:-1 57:-0.2 58:-1 59:-0.777778 60:-0.666667 61:-0.428571 62:-1 63:-0.714286 64:-0.5 65:-0.2 66:-1 67:-0.75 68:-1 69:-0.142857 70:-0.75 71:-1 72:-0.714286 73:0.2 74:-1 75:-0.428571 76:-0.666667 77:-1 78:-0.5 79:-1 80:-1 81:0.2 83:-0.75 84:-1 85:-0.428571 86:-0.714286 87:-1 88:-1 89:-0.333333 91:-1 92:-1 94:-0.142857 95:-0.714286 96:-0.636364 97:-0.666667 99:-0.8 100:-1 101:-1 102:-0.75 103:-0.8 104:-0.25 105:-0.142857 106:-1 107:-0.666667 108:-0.2 109:-0.714286 110:-1 111:-0.8 112:-1 113:-0.25 114:-0.333333 115:-0.666667 116:-1 117:-1 118:-0.714286 119:-0.5 120:-1 121:-0.5 122:-0.666667 123:-0.6 124:-0.666667 125:-1 126:-0.75 127:-0.6 128:-0.333333 129:-0.666667 130:0.333333 131:-0.666667 132:-0.333333 133:-0.2 134:-0.666667 135:-1 136:-0.333333 137:-1 138:-1 139:-1 140:-0.636364 141:-0.428571 142:-0.714286 143:-1 144:-0.666667 145:-0.555556 146:-0.428571 147:-0.142857 148:-0.428571 149:-1 150:-0.333333 151:-0.428571 152:-0.333333 153:-1 156:-1 157:-0.6 158:-0.2 159:-0.428571 160:-0.666667 161:-0.666667 162:-1 163:-1 164:-0.714286 165:-1 166:0.5 167:-0.333333 168:-1 169:-0.75 170:-0.2 171:-0.25 172:-1 173:-1 174:-0.833333 175:-0.428571 176:-1 177:-0.333333 178:-0.333333 179:-0.333333 180:-0.777778 181:-0.666667 182:-1 183:-0.666667 184:-1 186:-1 187:-1 188:-0.666667 189:-0.428571 190:-0.714286 191:-0.333333 192:-1 193:-0.6 194:-0.6 195:-1 196:-0.666667 197:-0.333333 198:-0.6 199:-0.777778 200:-0.8 201:-0.333333 202:-0.666667 203:-0.2 204:-0.666667 205:-1 206:-0.333333 207:-0.5 208:-0.666667 209:-0.75 210:-1 211:-1 212:-1 213:-0.6 214:-0.777778 216:-1 217:-0.555556 218:-0.6 219:-0.428571 220:0.428571 222:-1 223:-0.75 224:-0.142857 225:-1 226:-0.777778 227:-0.5 228:-0.666667 229:-1 230:-0.777778 231:-0.6 232:-1 233:-1 234:-1 235:-0.5 236:-0.25 237:-0.666667 238:-1 239:-0.333333 240:0.2 241:-1 242:-1 243:-0.666667 244:-0.666667 245:-0.428571 246:-0.666667 247:-0.666667 248:-1 249:-0.428571 250:-0.666667 251:-1 252:-0.5 253:-1 254:-1 255:-1 256:-1 257:-0.454545 259:-0.333333 260:-0.75 261:-0.333333 262:-0.714286 263:-0.333333 264:-0.333333 265:-1 266:-1 267:-0.6 268:-0.333333 269:-1 270:-0.333333 271:-1 272:-0.2 273:-0.75 275:-1 276:-1 277:-1 278:-0.428571 279:-1 280:-0.5 281:-0.333333 282:-1 283:-0.6 284:-1 285:0.428571 286:-0.5 287:-1 288:-0.714286 289:-0.2 290:-0.333333 291:-0.714286 292:-0.714286 293:-1 294:-1 295:-1 296:-0.333333 297:-0.428571 298:-1 299:-0.428571 300:-1 301:-0.714286 302:0.142857 303:-0.333333 304:-1 305:-0.6 306:-0.666667 307:-1 308:-0.5 309:-0.333333 310:-0.714286 311:-0.833333 312:-0.428571 313:0.5 314:0.111111 315:0.2 316:-1 317:-0.555556 318:-0.5 319:-1 320:-0.777778 321:-0.714286 322:-0.714286 323:-0.333333 324:-0.666667 325:-0.777778 326:-0.428571 327:-0.142857 328:-0.5 329:-0.2 330:-0.428571 332:-0.428571 333:-0.333333 334:-1 335:-0.142857 336:-0.333333 337:-0.142857 338:-0.75 340:-0.714286 341:-0.714286 342:-0.142857 343:-1 344:-0.714286 345:-0.6 346:-0.4 347:-0.8 348:-0.8 349:-0.5 350:-0.75 351:0.2 352:-1 353:-0.428571 354:-0.666667 355:-0.428571 356:-0.142857 357:-0.5 358:-1 359:-0.428571 360:-0.333333 361:-0.333333 362:-0.666667 363:-0.8 364:-1 365:-1 366:-0.714286 367:-0.333333 368:-0.8 369:-0.333333 370:-1 371:-1 372:-1 373:-0.6 374:-0.714286 375:-0.818182 376:-0.5 377:-0.6 378:-0.666667 379:-1 380:0.25 381:-1 382:-0.428571 383:-0.714286 384:-0.6 385:-0.666667 386:-0.272727 387:-1 388:-0.428571 389:-0.75 391:-1 392:-1 393:0.2 394:-0.6 395:-0.4 397:-0.454545 398:-0.6 399:-1 400:-0.25 401:-0.2 402:0.428571 403:-1 406:-1 407:-0.75 408:-0.666667 409:-0.142857 410:-0.5 411:-0.555556 412:1 413:-0.714286 414:-0.428571 415:-0.5 416:-1 417:-0.428571 418:0.5 419:-0.666667 420:0.2 421:-1 422:-0.666667 423:-0.6 424:-1 425:-0.666667 426:-0.6 427:-0.75 428:-0.666667 429:-0.4 430:-1 431:-1 433:-0.428571 434:0.25 435:-1 436:-0.692308 439:-1 440:-1 441:-1 442:-0.333333 443:-0.5 444:-0.777778 445:-0.333333 446:-0.571429 448:-0.714286 449:-0.428571 450:-0.75 451:0.25 452:-0.5 453:-0.6 454:-0.333333 455:-0.75 456:-0.75 457:-1 458:-1 459:-1 460:0.333333 461:-0.555556 462:-1 463:-1 464:-0.818182 465:-1 466:-1 467:-0.6 468:-0.5 469:-0.428571 470:-0.75 471:-0.8 472:-0.75 473:-0.75 474:-0.428571 475:-0.333333 476:-0.666667 477:-0.8 478:-1 479:0.0909091 480:-0.666667 481:-0.2 482:-1 483:-1 484:-1 485:-0.6 486:-0.2 487:-1 488:-1 489:0.25 491:-0.714286 492:0.2 495:-1 496:-1 497:-1 498:-0.333333 500:-1 501:-1 502:-0.714286 503:-0.6 504:-1 505:-1 506:-0.733333 507:-1 508:-0.428571 510:-0.75 511:-0.8 512:-0.428571 513:-0.428571 514:-0.714286 515:-1 516:-1 518:-0.142857 519:0.5 520:-1 521:-0.6 522:-0.25 523:-0.714286 524:-0.333333 525:-0.666667 526:-0.6 527:-0.333333 528:-1 529:-0.428571 530:-0.142857 531:-0.5 532:0.2 533:-1 534:1 535:-1 536:0.333333 537:-0.714286 538:-0.428571 539:-0.818182 540:-1 541:-1 542:-0.75 543:-1 544:-0.6 545:-0.857143 546:-0.5 547:-1 548:-0.555556 549:-0.5 550:0.142857 551:-1 552:-1 553:-0.8 554:-1 555:1 556:-1 557:-1 558:-0.714286 559:-0.25 560:-1 561:-1 562:-0.428571 563:-0.714286 564:-0.666667 565:-0.428571 566:-0.8 567:-1 568:-1 569:-1 570:-0.555556 571:-0.428571 573:-1 574:-0.5 575:-1 576:-1 577:-1 578:-0.333333 579:-0.8 580:-0.6 581:0.2 582:-1 583:-1 584:-0.818182 585:-1 586:-0.777778 587:-0.333333 588:-0.333333 589:-1 590:-0.428571 591:-0.666667 592:-0.75 593:-0.6 594:-1 595:-0.6 597:-0.6 598:-0.333333 599:-1 600:-0.2 601:-1 602:-0.6 603:-0.6 604:-0.75 605:-0.6 606:-0.866667 607:-0.714286 608:-1 609:-0.6 610:-0.333333 611:-0.75 612:-0.6 613:-0.6 614:-0.333333 615:-0.428571 616:-0.2 617:-1 619:-1 620:-0.333333 621:-0.5 622:-0.666667 623:-0.714286 624:-0.5 625:-1 627:-0.333333 629:-0.333333 630:0.111111 631:-1 632:-0.333333 633:-0.666667 636:-0.5 637:-0.5 638:-0.333333 639:-0.666667 641:-0.111111 642:-0.714286 643:-1 644:-0.666667 645:-0.555556 646:-0.142857 647:-0.555556 648:-1 649:-1 650:-1 651:-1 652:-0.142857 653:-0.714286 654:-0.666667 655:-0.5 656:-1 657:-0.714286 658:-0.777778 659:-0.777778 660:-0.2 661:-1 662:-0.25 663:-0.625 664:-0.333333 667:-0.666667 668:0.333333 669:-0.333333 670:-0.666667 671:-0.714286 672:-1 673:-0.2 674:-0.333333 675:-0.666667 676:-1 677:-1 678:-0.714286 679:0.2 681:-0.428571 683:-0.2 684:-1 685:-1 686:-1 687:-1 688:-0.75 689:-1 690:-0.142857 691:-0.75 692:-1 693:-0.6 694:-0.666667 695:-0.2 696:-0.333333 699:-0.6 700:-0.5 701:-0.714286 702:-1 703:-0.846154 704:-1 705:-0.428571 706:-1 707:-1 708:-1 709:-0.714286 710:-1 711:-1 712:-0.333333 713:0.5 714:-0.333333 715:-1 716:-0.5 717:-1 718:-0.714286 719:-1 720:-1 721:-1 722:-0.666667 723:-0.75 724:-0.333333 725:-0.142857 726:-0.714286 727:-1 728:-0.666667 729:-0.5 730:-0.666667 731:-0.75 732:-0.636364 733:-0.75 734:-0.6 735:-0.666667 736:-0.555556 737:-1 738:-0.25 739:-0.666667 740:-1 741:-1 742:-1 743:-1 744:-1 745:-1 747:-1 748:0.142857 749:0.25 750:0.5 751:-0.666667 752:-0.666667 753:-0.333333 754:-0.555556 755:-0.866667 756:0.6 757:-0.714286 758:-0.428571 759:-0.428571 760:-0.666667 761:0.428571 762:-0.333333 763:-0.428571 764:-1 765:-0.5 766:-1 767:-1 768:-1 769:-0.428571 770:-0.4 771:-0.5 772:-1 774:-1 775:-1 776:-1 777:-1 778:-0.333333 779:-0.428571 780:-0.142857 781:-0.428571 782:-1 783:-0.333333 784:0.25 785:-1 786:-0.428571 788:-1 789:-0.5 790:-1 791:-0.333333 792:-0.666667 793:-0.714286 794:-1 795:-1 796:-0.538462 797:-0.2 798:-0.428571 799:-1 800:-1 801:0.333333 802:-0.333333 803:0.2 804:-1 805:-1 806:-0.333333 807:-0.5 808:-0.5 809:-1 810:-1 811:-1 812:-1 814:-1 815:-0.6 816:-1 817:-1 818:-0.75 819:-0.818182 820:-1 822:0.0909091 823:-1 824:-1 825:-0.6 826:-0.6 827:-0.777778 828:0.25 829:-1 830:-0.75 831:-1 832:-0.5 833:-0.777778 834:-0.8 835:-0.714286 836:-0.8 837:-0.5 838:-0.5 839:-0.714286 840:-0.5 841:-0.555556 842:-1 843:-0.714286 844:-0.714286 846:-0.454545 847:-1 848:-0.333333 849:-1 850:-0.8 851:-0.142857 853:-0.5 854:-1 855:-1 856:-1 857:-0.333333 858:-1 859:-0.555556 860:-1 861:-0.2 862:-0.2 863:-1 864:-0.5 865:-0.555556 866:-0.4 867:-0.75 868:-0.142857 869:-1 870:-1 871:-0.5 872:-0.25 873:-0.555556 874:-1 875:-0.4 876:-1 877:-1 878:-0.75 879:-0.714286 880:-0.5 881:-0.818182 882:-0.2 883:-1 884:-0.333333 885:-1 886:-0.111111 887:-1 888:-0.333333 889:-0.428571 890:-0.25 891:-1 892:-1 893:-0.142857 894:-0.666667 895:-0.5 896:-0.846154 898:-1 899:-0.5 900:-0.555556 901:-1 902:-0.25 903:-1 904:-0.333333 905:-0.666667 906:-1 907:-1 908:-0.5 909:-0.777778 910:-0.75 911:-0.384615 912:-0.6 913:-1 914:-0.8 915:-1 916:-1 917:-0.428571 918:-0.75 919:-0.5 920:-1 921:-0.5 922:0.333333 923:-0.333333 924:-0.333333 925:-0.333333 927:0.333333 928:-1 929:-0.846154 930:-0.6 931:-0.2 932:-0.333333 934:-0.8 935:0.666667 936:0.142857 937:-1 938:-1 939:-1 940:-0.6 941:0.5 942:-1 943:-0.714286 944:0.25 945:-1 946:-1 947:-0.6 948:-1 949:-0.25 950:-0.428571 951:-0.333333 952:-0.428571 953:-0.4 954:-0.428571 955:-0.5 956:-0.142857 957:0.0909091 958:0.2 959:-0.428571 960:-1 961:-0.666667 962:-1 963:-0.6 964:-0.142857 965:-1 966:-0.666667 967:-0.846154 968:-0.666667 969:-0.142857 970:-0.75 971:-0.714286 972:-0.5 973:-1 974:-0.714286 975:-0.2 976:-0.555556 977:-0.666667 978:-0.714286 979:-0.8 981:-0.666667 982:-0.333333 983:-0.666667 984:-0.555556 985:-0.454545 986:-0.5 987:-0.6 988:-0.75 989:-1 990:-0.538462 991:-0.333333 992:-0.6 993:-0.333333 994:-0.777778 995:-0.5 996:-1 997:-1 998:0.333333 999:-0.8 1000:0.2 1001:-0.6 1002:-1 1003:-0.5 1004:-0.8 1005:-1 1006:-0.2 1007:-0.818182 1008:-0.555556 1009:-0.428571 1010:-0.75 1011:-0.6 1012:-0.692308 1013:-0.666667 1014:-0.2 1015:-0.75 1016:-0.333333 1018:-0.714286 1019:-0.142857 1020:-0.142857 1021:-0.666667 1022:-0.777778 1024:0.142857 1025:0.333333 1026:0.0769231 1027:-1 1028:-0.75 1029:-0.142857 1030:-1 1031:-0.4 1032:-1 1033:-0.6 1034:-0.5 1035:-0.714286 1036:-0.714286 1037:-0.666667 1038:-1 1039:-1 1040:-1 1041:-0.666667 1042:-0.6 1043:-0.333333 1044:-0.75 1045:-1 1046:-1 1047:-1 1048:-0.666667 1049:-0.5 1050:-0.833333 1051:-0.8 1052:-0.75 1053:-0.6 1054:-0.5 1055:-0.714286 1056:-1 1057:-1 1058:-1 1059:-0.2 1060:0.666667 1061:1 1062:-0.833333 1063:-0.666667 1064:-0.666667 1065:-0.333333 1066:0.25 1067:-0.714286 1068:-0.2 1069:-0.25 1070:-0.428571 1071:-0.428571 1072:-0.777778 1073:-0.428571 1074:-0.6 1075:-0.5 1076:-0.6 1077:-0.6 1078:-0.384615 1079:-1 1080:-1 1081:-0.428571 1082:-1 1083:-0.555556 1084:-0.666667 1085:-1 1086:-0.5 1087:-0.428571 1088:-0.636364 1089:-0.428571 1090:-0.8 1091:-0.333333 1092:0.2 1093:-1 1094:-1 1095:-0.333333 1096:-0.2 1097:-1 1098:-1 1099:-0.333333 1100:-1 1101:-0.666667 1102:-0.714286 1103:-0.5 1104:-1 1105:-0.6 1106:-0.714286 1107:-0.6 1108:-0.636364 1109:-0.6 1110:-1 1111:-0.111111 1112:-0.6 1114:-1 1115:-1 1116:-1 1117:-0.333333 1118:-0.714286 1119:-0.333333 1120:-0.75 1121:-0.5 1122:-1 1123:-0.75 1125:-1 1126:0.333333 1127:-0.692308 1128:-1 1129:-0.333333 1130:-0.636364 1131:-0.75 1132:-0.454545 1133:-0.428571 1134:-1 1136:-0.666667 1137:-0.714286 1138:-0.5 1139:-1 1140:-0.714286 1141:-0.833333 1142:-1 1143:-1 1144:-1 1145:-0.4 1146:-0.6 1147:-0.5 1148:0.5 1149:-0.75 1150:-0.8 1151:-1 1152:0.25 1153:-0.454545 1155:-1 1156:-0.333333 1157:-0.5 1158:-0.333333 1159:-0.166667 1160:-0.333333 1161:-0.666667 1162:-0.857143 1163:-1 1164:-0.5 1165:0.2 1166:-0.5 1167:-0.6 1168:-1 1169:-1 1170:-0.333333 1171:-0.333333 1172:-1 1173:-1 1174:-0.333333 1175:-1 1176:-0.5 1177:-0.714286 1178:-0.777778 1179:-0.555556 1180:-0.714286 1181:-0.555556 1182:-0.8 1183:-1 1184:-0.333333 1185:-0.875 1186:-0.666667 1187:-0.666667 1188:-0.666667 1189:-0.666667 1190:-1 1191:-0.692308 1192:-0.666667 1193:-0.714286 1194:-1 1195:-0.5 1196:-0.5 1197:-0.714286 1198:-0.6 1199:-0.2 1200:-1 1201:-0.6 1202:-0.666667 1203:-0.75 1204:-0.555556 1205:-0.692308 1206:-1 1207:-0.6 1208:-0.857143 1209:-0.5 1211:-0.777778 1212:-0.6 1213:0.333333 1214:-0.5 1215:-0.8 1216:0.2 1217:-1 1218:-0.555556 1219:-0.555556 1220:-1 1221:-1 1222:0.142857 1223:-1 1224:-0.5 1225:-1 1226:-0.8 1227:-0.75 1228:-0.111111 1229:-0.777778 1230:-0.333333 1231:-0.25 1232:-0.333333 1233:-0.2 1234:-0.666667 1235:-0.333333 1236:-0.428571 1237:-1 1238:-0.333333 1239:-1 1240:-1 1241:-0.333333 1242:-0.6 1243:-1 1244:-0.5 1245:-1 1246:-0.25 1247:-0.111111 1248:-1 1249:-0.75 1250:-1 1251:-0.428571 1252:-0.666667 1254:-1 1255:-0.6 1256:-0.25 1257:-0.428571 1258:-0.5 1259:-1 1260:-1 1263:-0.428571 1264:-0.692308 1265:-0.5 1266:-0.333333 1267:-1 1268:-0.5 1269:-0.714286 1270:-0.142857 1271:-1 1272:-1 1274:-0.714286 1275:-1 1276:0.666667 1277:-1 1278:-0.2 1279:-0.75 1280:-0.5 1281:0.5 1282:-1 1283:1 1284:-1 1285:-0.142857 1286:-0.75 1287:-0.333333 1288:-0.636364 1289:-1 1290:-1 1291:-0.666667 1292:-0.333333 1294:-0.714286 1295:-0.777778 1296:-0.333333 1297:-0.333333 1298:-0.2 1299:0.5 1300:0.25 
0.02281041331091031 1:-0.428571 2:-1 3:-0.6 4:-1 5:-1 6:-1 7:-0.777778 8:-0.666667 9:-1 10:-0.6 11:-0.6 12:-1 13:-0.714286 14:-1 15:-1 16:-1 17:-1 18:-1 19:-1 20:-1 21:-0.25 22:-0.5 23:-0.777778 24:-0.666667 25:-0.8 26:-0.714286 27:-1 28:-0.75 29:-1 30:-0.5 31:-1 32:-1 33:-0.333333 34:0.428571 35:-1 36:-1 37:-1 38:-0.75 39:-0.333333 40:-1 41:-1 42:-1 43:-1 44:-0.714286 45:-0.75 46:-0.666667 47:-1 48:-1 49:-0.777778 50:-1 51:-0.666667 52:-0.5 53:-1 54:-1 55:-0.6 56:-0.8 57:-1 58:-0.714286 59:-1 60:-0.666667 61:-0.428571 62:-1 63:-1 64:-0.5 65:-1 66:-0.818182 67:-1 68:-0.6 69:-0.714286 70:-1 71:-0.714286 72:-0.714286 73:-1 74:-0.777778 75:-1 76:-0.666667 77:-1 78:-1 79:-0.714286 80:-0.714286 81:-0.2 82:-1 83:-0.75 84:-1 85:-0.714286 86:-1 87:-0.777778 88:-1 89:-1 90:-1 91:-1 92:-1 93:-1 94:-1 95:-0.714286 96:-1 97:-0.666667 98:-1 99:-0.4 100:-0.714286 101:-0.714286 102:-0.5 103:-0.4 104:-1 105:-0.428571 106:-1 107:-1 108:-1 109:-0.714286 110:-1 111:-0.4 112:-0.714286 113:-0.75 114:-1 115:-0.666667 116:-0.428571 117:-0.142857 118:-1 119:-1 120:-1 121:-0.5 122:-0.666667 123:-0.6 124:-1 125:-1 126:-1 127:-0.6 128:-0.666667 130:-1 131:-1 132:-1 133:-0.2 134:-1 135:-1 136:-0.666667 137:-1 138:-1 139:-1 140:-1 141:-1 142:-0.428571 143:-0.777778 144:-1 145:-1 146:-1 147:-1 148:-0.428571 149:-0.714286 150:-1 151:-0.714286 152:-1 153:-0.666667 154:-1 155:-0.333333 156:-0.75 157:0.2 158:-1 159:-0.714286 160:-0.666667 161:-1 162:-1 163:-1 164:-1 165:-1 166:-1 168:-0.4 169:-1 170:-0.6 171:-0.75 172:-1 173:-1 174:-1 175:-1 176:-1 177:-0.333333 178:0.333333 179:-0.666667 180:-0.777778 181:-0.666667 182:-1 183:-0.666667 184:-1 185:-0.333333 186:-1 187:-0.714286 188:-0.666667 189:-0.428571 190:-1 191:-0.111111 192:-0.428571 193:-1 194:-0.6 195:-1 196:-0.333333 197:-1 198:-0.6 199:-1 200:-1 201:-1 202:-1 203:-0.6 204:-1 205:-0.428571 206:-0.333333 207:-0.5 208:-0.333333 209:-0.25 210:-1 211:-1 212:-0.666667 213:-0.6 214:-0.777778 215:-1 216:-0.142857 217:-0.555556 218:-0.2 219:0.142857 220:-0.714286 221:-1 222:-1 223:-0.5 224:-1 225:-1 226:-1 227:-0.75 228:-1 229:-0.555556 230:-1 231:-0.6 232:-1 233:-0.777778 234:-0.5 235:-1 236:-0.5 237:-0.666667 238:-0.777778 239:-0.666667 240:-0.6 241:-1 242:-1 243:-0.666667 244:-1 245:-0.428571 246:-0.666667 247:-0.666667 248:-1 249:-0.714286 250:-1 251:-0.666667 252:-1 253:-0.5 254:-0.777778 255:-1 256:-0.75 257:-1 258:-1 259:-1 260:-0.75 261:-1 262:-1 263:-1 264:-0.333333 265:-0.666667 266:-0.75 267:-1 268:-1 269:-1 270:-0.333333 271:-0.6 272:-1 273:-1 274:-1 275:-1 276:-1 277:-1 278:-1 279:-0.6 280:-0.5 281:-1 282:-0.714286 283:-1 284:-0.714286 285:-1 286:-1 287:-1 288:1 289:-0.6 290:-1 291:-1 292:-1 293:-0.6 294:-0.428571 295:-0.777778 296:-1 297:-0.714286 298:-1 299:-1 300:-0.333333 301:-1 302:-1 303:-1 304:-1 305:-0.2 306:-0.666667 307:-1 308:-1 309:-1 310:-0.428571 311:-0.833333 312:-0.428571 313:-1 314:-1 315:-1 316:-0.333333 317:-1 318:-0.75 319:-1 320:-0.555556 321:-0.428571 322:-1 323:-0.666667 325:-0.777778 326:-0.714286 327:-1 328:-0.25 329:-0.6 330:-0.714286 331:-1 332:-0.428571 333:-1 334:-1 335:-0.428571 336:-1 337:-1 338:-0.75 339:-0.666667 340:-0.428571 341:-1 342:-1 343:-1 344:-0.428571 345:-0.8 346:-1 347:-1 348:-1 349:-1 350:-1 351:-0.2 352:-1 353:-0.714286 354:-1 355:-0.142857 356:-1 357:-1 358:-0.777778 359:-1 360:-1 361:-0.333333 362:-0.666667 363:-0.8 364:-1 365:-0.75 366:-1 367:-0.333333 368:-1 370:-1 371:-1 372:-1 373:-1 374:-1 375:-0.818182 376:-0.5 377:-0.6 378:-0.666667 379:-1 380:-1 381:-0.777778 382:-0.714286 383:-1 384:-0.8 385:-0.333333 386:-1 387:-0.5 388:-1 389:-0.5 390:-0.333333 391:-0.6 392:-0.6 393:-0.2 394:-1 395:-0.8 396:-0.666667 397:-1 398:-1 399:-1 400:-1 401:0.2 402:-1 403:-1 404:-1 405:-1 406:-1 407:-1 408:-1 409:-1 410:-1 411:-1 412:-1 413:-0.428571 414:-1 415:-0.5 416:-0.333333 417:-0.428571 418:-1 419:-1 420:-1 421:-0.666667 422:-1 423:-1 424:-0.857143 425:-1 426:-0.6 427:-0.75 428:-1 429:-1 430:-1 431:-1 432:-0.666667 433:-0.428571 434:-1 435:-1 436:-1 437:-1 438:-1 439:-1 440:-1 441:-0.428571 442:-1 443:-1 444:-0.333333 445:0.333333 446:-1 447:-1 448:-0.428571 449:-1 450:-1 451:-1 452:-0.5 453:-0.6 454:-1 455:-0.75 456:-0.75 457:-1 458:-0.555556 459:-0.75 460:-0.666667 461:0.111111 462:-1 463:-1 464:-1 465:-0.75 466:-1 467:-1 468:-0.75 469:-1 470:-1 471:-1 472:-1 473:-0.5 474:-0.428571 475:-1 476:-0.666667 477:-1 478:-0.333333 479:-1 480:-0.333333 481:-0.6 482:-0.666667 483:-0.142857 484:-1 485:-1 486:-0.2 487:-0.6 488:-0.6 489:-1 490:-1 491:-1 492:-1 493:-1 494:-1 495:-1 496:-0.75 497:-1 499:-1 500:-0.666667 501:-1 502:-1 503:-0.2 504:-0.6 505:-0.5 506:-0.866667 507:-1 508:-1 509:-1 510:-1 511:-1 512:-1 513:-1 514:-0.428571 515:-0.142857 516:-0.555556 517:-0.666667 518:-0.142857 519:-1 520:-1 521:-1 522:0.25 523:-0.142857 524:-0.777778 525:-0.333333 526:-1 527:-0.666667 528:-0.333333 529:-1 530:-1 531:-1 532:-1 533:-0.75 534:-1 535:-1 536:-1 537:-0.714286 538:-0.428571 539:-0.818182 540:-1 541:-1 542:-1 543:-0.777778 544:-0.2 545:-0.714286 546:-1 547:-1 548:-1 549:-0.5 550:-0.714286 551:-1 552:-0.5 553:-1 554:-0.714286 555:-1 556:-1 557:-0.333333 558:-1 559:-0.75 560:-1 561:-0.777778 562:-0.714286 563:-1 564:-1 565:-0.142857 566:-0.8 567:-0.333333 568:-0.555556 569:-0.75 570:-0.777778 571:-0.714286 572:-0.333333 573:-0.6 574:-0.5 575:-0.5 576:-0.666667 577:-1 578:-1 579:-0.8 580:-1 581:-0.2 582:-1 583:-0.5 584:-1 585:-0.777778 586:-0.777778 587:-0.333333 588:-1 589:-0.666667 590:-0.142857 591:-1 592:-1 593:-1 594:-0.5 595:0.2 596:-0.666667 597:-0.6 598:-1 599:-1 600:-1 601:-1 602:-1 603:-0.6 604:-0.25 605:-1 606:-1 607:-0.714286 608:-0.666667 609:-0.6 610:-1 611:-1 612:-1 613:-1 614:-0.333333 615:-0.714286 616:-0.6 617:-1 618:-1 619:-0.333333 620:-1 621:-1 622:-0.666667 623:-1 624:-1 625:-1 626:-1 627:-0.666667 628:-1 629:-0.666667 630:-1 631:-0.666667 632:-0.666667 633:-1 634:-1 635:-1 636:-1 637:-0.25 638:-0.666667 639:-1 640:-0.666667 641:-0.333333 642:-0.714286 643:-1 644:-1 645:-0.777778 646:-1 647:-0.111111 648:-1 649:-1 650:-1 651:-1 652:-0.428571 653:-1 654:-1 655:-1 656:-0.714286 657:-0.714286 658:-1 659:-0.111111 660:-0.6 661:-1 662:-0.25 663:-1 664:-1 665:-0.666667 666:-1 667:-1 668:-0.333333 669:-1 670:-1 671:-0.428571 672:-1 673:-1 674:-1 675:-0.666667 676:-1 677:-1 678:-1 679:-0.6 680:-0.5 681:-1 682:-0.666667 683:-1 684:-0.428571 685:-0.666667 686:-0.428571 687:-0.75 688:-1 689:-1 690:-0.714286 691:-1 692:-0.714286 693:-0.8 694:-1 695:-1 696:-1 697:-1 698:-1 699:-0.2 700:-0.75 701:-1 702:-0.428571 703:-1 704:-0.333333 705:-1 706:-0.428571 707:-1 708:-0.6 709:-1 710:-1 711:-1 712:-0.666667 714:-1 715:-0.6 716:-1 717:-0.5 718:-1 719:-1 720:-1 721:-1 723:-0.25 724:-1 725:-1 726:-0.428571 727:-1 729:-1 730:-1 731:-1 732:-1 733:-1 734:-0.6 735:-1 736:-0.777778 737:-0.6 738:-1 739:-0.666667 740:-0.666667 741:-1 742:-1 743:-1 744:-1 745:-1 746:-0.333333 747:-1 748:-1 749:-1 750:-1 752:-1 753:-1 754:-0.111111 755:-1 756:-1 757:-0.714286 758:-1 759:-0.142857 760:-0.666667 761:-1 762:-0.333333 763:-1 764:-0.5 765:-1 766:-0.333333 767:-0.75 768:-1 769:-0.714286 770:-1 771:-0.5 772:-0.714286 773:-1 774:-0.6 775:-1 776:-0.714286 777:-0.818182 778:-1 779:-0.714286 780:-1 781:-1 782:-0.2 783:-1 784:-1 785:-0.428571 786:-0.714286 787:-0.666667 788:-0.428571 789:-1 790:-1 791:-1 792:-1 793:-0.714286 794:-0.75 795:-0.5 796:-1 797:-1 798:-1 799:-1 800:-0.8 801:-1 802:-1 803:-1 804:-0.6 805:-1 806:-0.333333 807:-0.5 808:-1 809:-1 810:-0.2 811:-0.666667 812:-0.714286 813:-1 814:-1 815:-1 816:-1 817:-0.428571 818:-0.75 819:-0.818182 820:-1 821:-0.333333 822:-0.818182 823:-1 824:-0.75 825:-1 826:-0.8 827:-1 828:-1 829:-1 830:-1 831:-1 832:-0.5 833:-1 834:-0.8 835:-1 836:-0.8 837:-0.5 838:-1 839:-1 840:-1 841:-0.555556 842:-0.75 843:-1 844:-0.714286 845:-1 846:-0.818182 847:-0.428571 848:-0.666667 849:-1 850:-1 851:-0.714286 852:-1 853:-1 854:-0.428571 855:-1 856:-0.6 857:-0.777778 858:-1 859:-0.333333 860:-1 861:-0.6 862:-0.2 863:-1 864:-0.75 865:-0.777778 866:-0.6 867:-1 868:-0.714286 869:-1 870:-0.666667 871:-0.75 872:-0.5 873:-1 874:-0.666667 875:-1 877:-0.666667 878:-1 879:-0.714286 880:-0.5 881:-0.454545 882:-1 883:-0.4 884:-1 885:-1 886:-1 887:-0.714286 888:0.333333 889:-1 890:-1 891:-1 892:-1 893:-0.714286 894:-0.666667 895:-1 896:-1 898:-1 899:-0.666667 900:-0.777778 901:-0.555556 902:-1 903:-1 904:-0.333333 905:-1 906:-0.818182 907:-1 908:-1 909:-1 910:-1 911:-0.692308 912:-1 913:-1 914:-1 915:-1 916:-0.666667 917:-0.428571 918:-0.5 919:-0.5 920:-0.5 921:-1 922:-0.666667 923:0.666667 924:-1 926:-1 927:-0.333333 928:-1 929:-1 930:-0.6 931:-1 932:-1 933:-0.333333 934:-0.8 935:-1 936:-0.714286 937:-0.5 938:-1 939:-0.818182 940:-1 941:-0.5 942:-1 943:-0.428571 944:-1 945:-1 946:-1 947:-1 948:-1 949:-1 950:-0.142857 951:-0.333333 952:-1 953:-0.8 954:-0.428571 955:-0.5 956:-1 957:-0.818182 958:-0.2 959:-0.714286 960:-1 961:-1 962:-0.777778 963:-0.6 964:-0.714286 965:-0.666667 967:-0.846154 968:-0.333333 969:-0.714286 970:-1 971:-0.714286 973:-1 974:-0.857143 975:-0.6 976:-0.777778 977:-0.666667 978:-1 979:-0.8 980:-0.666667 981:-1 982:-0.333333 983:-0.333333 984:-0.777778 985:-1 986:-0.75 987:-1 988:-0.75 989:-0.666667 990:-1 991:-0.666667 992:-0.6 993:-1 994:-0.777778 995:-1 996:-1 997:-1 998:-1 999:-0.8 1000:-1 1001:-0.6 1002:-0.666667 1003:-0.25 1004:-1 1005:-1 1006:-0.6 1007:-1 1008:-0.777778 1009:-1 1010:-1 1011:-0.6 1012:-1 1013:-1 1014:-1 1015:-1 1016:-1 1017:-0.333333 1018:-0.714286 1019:-1 1020:-1 1021:-1 1022:-1 1023:-1 1024:-1 1025:-0.666667 1026:-0.692308 1027:-1 1028:-0.5 1029:-1 1030:-0.5 1031:-0.8 1032:-0.6 1033:-0.6 1034:-0.5 1035:-1 1036:-0.428571 1037:-1 1038:-1 1039:-1 1040:-0.666667 1041:-1 1042:-1 1043:-1 1044:-1 1045:-0.75 1046:-1 1047:-1 1048:-0.666667 1049:-0.5 1050:-0.833333 1051:-1 1052:-0.75 1053:-1 1054:-1 1055:-1 1056:-1 1057:-1 1058:-1 1059:-1 1060:-1 1061:-1 1062:-0.833333 1063:-1 1064:-0.666667 1065:-1 1066:-1 1067:-0.714286 1068:-1 1069:-1 1070:-1 1071:-1 1072:-0.777778 1073:-1 1074:-0.4 1075:-0.5 1076:-1 1077:-1 1078:-0.692308 1079:-1 1080:-1 1081:-1 1082:-1 1083:-0.333333 1084:-1 1085:-0.818182 1086:-0.5 1087:-0.428571 1088:-1 1089:-0.428571 1090:-1 1091:-0.666667 1092:-1 1093:-1 1094:-1 1095:-1 1096:-0.6 1097:-0.777778 1098:-0.714286 1099:-1 1100:-0.428571 1101:-1 1102:-0.714286 1103:-0.5 1104:-1 1105:-0.6 1106:-0.714286 1107:-1 1108:-1 1109:-0.6 1110:-1 1111:-1 1112:-1 1113:-1 1114:-1 1115:-0.777778 1116:-1 1117:-1 1118:-1 1119:-0.777778 1120:-0.75 1121:-0.25 1122:-0.666667 1123:-0.5 1125:-0.75 1126:-0.333333 1127:-0.692308 1128:-0.75 1129:-0.666667 1130:-1 1131:-0.75 1132:-1 1133:-1 1134:-0.666667 1135:-1 1136:-1 1137:-1 1138:-1 1139:-1 1140:-1 1141:-1 1142:-1 1143:-1 1144:-0.714286 1145:-1 1146:-1 1147:-1 1148:-1 1149:-0.75 1150:-1 1151:-0.714286 1153:-1 1154:-1 1155:-1 1156:-1 1157:-0.5 1158:-1 1159:-0.333333 1160:-0.666667 1161:-1 1162:-0.857143 1163:-0.75 1165:-0.2 1166:-1 1167:-0.6 1168:-1 1169:-0.75 1170:0.333333 1171:-0.666667 1172:-0.833333 1173:-0.666667 1174:-1 1175:-1 1176:-0.833333 1177:-1 1178:-1 1179:-0.777778 1180:-0.714286 1181:-0.777778 1182:-1 1183:-0.5 1184:-1 1185:-0.875 1186:-0.5 1187:-0.333333 1188:-1 1189:-0.333333 1190:-0.75 1191:-0.846154 1192:-1 1193:-0.714286 1194:-0.333333 1195:-1 1196:-1 1197:-1 1198:-0.6 1199:-0.6 1200:-0.75 1201:-1 1202:-0.333333 1203:-1 1204:-1 1205:-1 1206:-1 1207:-0.6 1208:-0.857143 1209:-0.5 1210:-1 1211:-0.777778 1212:-0.6 1213:-0.666667 1214:-0.5 1215:-1 1216:-1 1217:-1 1218:-0.777778 1219:-0.111111 1220:-1 1221:-1 1222:-1 1223:-0.333333 1224:-0.5 1225:-0.75 1226:-1 1227:-1 1228:-1 1229:-1 1230:-1 1231:-1 1232:-1 1233:-1 1234:-1 1235:-1 1236:-1 1237:-0.714286 1238:-1 1239:-0.142857 1240:-0.4 1242:-0.6 1243:-0.6 1244:-0.5 1245:-1 1247:-1 1248:-0.714286 1249:-1 1250:-1 1251:-1 1252:-1 1253:-1 1254:-1 1255:-1 1256:-1 1257:-1 1258:-1 1259:-0.714286 1260:-1 1261:-0.5 1262:-1 1263:-1 1264:-1 1265:-0.5 1266:-1 1267:-0.714286 1268:-1 1269:-0.714286 1270:-1 1271:-0.818182 1272:-0.666667 1273:-1 1274:-1 1275:-1 1276:-1 1277:-1 1278:-0.6 1279:-0.5 1280:-0.5 1281:-1 1282:-0.75 1283:-1 1284:-0.5 1285:-1 1286:-0.75 1287:-0.666667 1288:-1 1289:-0.666667 1290:-1 1291:-0.333333 1293:-1 1294:-0.857143 1295:-1 1296:-1 1297:-0.666667 1298:-0.6 1300:-1 
